<Nnet> 
<AddShift> 1024 1024 
<LearnRateCoef> 0  [ -0.08818044 -0.0447196 -0.120331 -0.2168003 -0.06929497 -0.08589592 -0.3143697 -0.06747274 -0.183695 -0.3204762 -0.17625 -0.1232434 -0.07994682 -0.06308327 -0.1406317 -0.05767293 -0.03604189 -0.1014737 -0.03606767 -0.04088128 -0.1938169 -0.02865315 -0.0305352 -0.2382648 -0.07086891 -0.1133001 -0.1908949 -0.08951925 -0.09709099 -0.06246102 -0.2018765 -0.05969128 -0.07411306 -0.1297075 -0.1964251 -0.0826156 -0.09204959 -0.07007002 -0.1889414 -0.1636082 -0.1107887 -0.09941263 -0.04286009 -0.1380386 -0.07779216 -0.1803433 -0.2513454 -0.05381304 -0.179449 -0.1128336 -0.317603 -0.0861534 -0.0600924 -0.05821353 -0.2035906 -0.09964113 -0.3200826 -0.07993194 -0.09353114 -0.04860007 -0.1344648 -0.04675347 -0.07462747 -0.08098868 -0.07801128 -0.04627074 -0.1125179 -0.164165 -0.3163219 -0.08151008 -0.1877709 -0.1754321 -0.3222083 -0.138779 -0.07444667 -0.09400343 -0.04268822 -0.2074968 -0.1072101 -0.2225527 -0.1026319 -0.1137345 -0.08433058 -0.1935566 -0.09735536 -0.04276574 -0.2134767 -0.1359629 -0.28994 -0.3546785 -0.1366724 -0.03804145 -0.1110642 -0.06795158 -0.09246167 -0.08116557 -0.0298401 -0.3396391 -0.1822091 -0.1125749 -0.1214252 -0.07134671 -0.07320821 -0.1925521 -0.0657341 -0.1022961 -0.301194 -0.09207844 -0.1643171 -0.132827 -0.1054238 -0.1084568 -0.1461284 -0.1059394 -0.1968526 -0.04273485 -0.1121809 -0.07658814 -0.1705818 -0.05991164 -0.234711 -0.1056323 -0.166347 -0.1846936 -0.05608104 -0.1124434 -0.0853117 -0.1893714 -0.05886976 -0.1890652 -0.05565399 -0.3104649 -0.1764633 -0.05107714 -0.3464322 -0.1454997 -0.05887203 -0.190952 -0.08014188 -0.1012042 -0.09387258 -0.1607178 -0.0674117 -0.1951444 -0.1703933 -0.1248153 -0.07443438 -0.06064842 -0.07596913 -0.07134548 -0.08546597 -0.1623942 -0.09074261 -0.2352786 -0.1337157 -0.03328038 -0.06644842 -0.05550526 -0.1721544 -0.288377 -0.1537617 -0.1649361 -0.07319719 -0.1057539 -0.3399419 -0.1336607 -0.1538473 -0.1484757 -0.07320315 -0.1132367 -0.07906321 -0.1373647 -0.1182719 -0.03233949 -0.08328144 -0.2735252 -0.1001499 -0.211666 -0.09491516 -0.04431453 -0.1398088 -0.1240536 -0.08150075 -0.154689 -0.2110281 -0.1717614 -0.187514 -0.1509389 -0.124848 -0.02939701 -0.09677853 -0.04459001 -0.1470785 -0.05349528 -0.1955949 -0.03301854 -0.1694488 -0.1216934 -0.0753379 -0.07645019 -0.1948158 -0.1885265 -0.1952558 -0.06654488 -0.1074628 -0.1026281 -0.1806682 -0.09527125 -0.08051086 -0.06977247 -0.04600399 -0.1443013 -0.06441177 -0.07469591 -0.1482065 -0.1775281 -0.0354257 -0.1922272 -0.1995869 -0.1368309 -0.119469 -0.1535953 -0.1023458 -0.2010365 -0.2089656 -0.3297387 -0.1383331 -0.171828 -0.06258978 -0.0939275 -0.05368807 -0.1817244 -0.166914 -0.107677 -0.1790541 -0.3285732 -0.04103618 -0.09342759 -0.05843233 -0.2232545 -0.07576777 -0.1719815 -0.1781474 -0.1691462 -0.1994952 -0.09482837 -0.1211088 -0.05311891 -0.1906877 -0.08646166 -0.1735306 -0.09845889 -0.183617 -0.09334873 -0.1285914 -0.1870737 -0.1131903 -0.03028424 -0.2077831 -0.08026896 -0.092172 -0.07907269 -0.0288115 -0.05536964 -0.1436742 -0.144669 -0.0839316 -0.1879091 -0.1663739 -0.1800389 -0.07457027 -0.03538401 -0.1366553 -0.03285218 -0.08999301 -0.0294249 -0.1877222 -0.1546151 -0.0691178 -0.1237292 -0.2636612 -0.1176595 -0.1242953 -0.2825205 -0.1540439 -0.03717725 -0.4006303 -0.1836592 -0.1950703 -0.05545468 -0.08297087 -0.2512737 -0.325699 -0.2012479 -0.06538967 -0.1863893 -0.1868334 -0.09867266 -0.1887012 -0.07309616 -0.1481622 -0.05325457 -0.1516564 -0.111811 -0.04315516 -0.1320928 -0.1872047 -0.1480293 -0.06963295 -0.1863061 -0.2087962 -0.2296838 -0.1231434 -0.08123837 -0.1245715 -0.1886065 -0.08771253 -0.1876859 -0.1889036 -0.1686881 -0.1083285 -0.1607168 -0.1042461 -0.1484743 -0.1664514 -0.06666546 -0.09535211 -0.1150341 -0.07779754 -0.1335558 -0.03173492 -0.121071 -0.2023901 -0.0431632 -0.2163382 -0.0778738 -0.06078217 -0.1143767 -0.2037733 -0.05427522 -0.1557974 -0.06975732 -0.06122721 -0.1135368 -0.06561581 -0.08458833 -0.04725142 -0.06785889 -0.2127349 -0.04231695 -0.2057626 -0.07802545 -0.1522427 -0.06484956 -0.0704644 -0.1196443 -0.06201663 -0.1028113 -0.08521863 -0.06733171 -0.06822045 -0.1054365 -0.116416 -0.04356794 -0.02882465 -0.1006384 -0.1925001 -0.09144065 -0.1899625 -0.2272138 -0.03908473 -0.1292533 -0.1449102 -0.07964438 -0.07133922 -0.03174154 -0.06771016 -0.1313901 -0.08007089 -0.1515565 -0.1472622 -0.0500158 -0.150647 -0.049248 -0.2220504 -0.193606 -0.07748545 -0.1646274 -0.09218523 -0.3335844 -0.2910518 -0.07559113 -0.07101606 -0.02269315 -0.08394929 -0.1805894 -0.07036324 -0.08444395 -0.0657322 -0.1111797 -0.15833 -0.1283833 -0.09041941 -0.2815714 -0.03826044 -0.1046636 -0.06995696 -0.08495085 -0.1253317 -0.05919622 -0.1396087 -0.08134855 -0.09648265 -0.05506614 -0.07960338 -0.2431698 -0.07673808 -0.05201793 -0.1891045 -0.1365104 -0.04695468 -0.0232094 -0.1148352 -0.1412593 -0.07143268 -0.06138157 -0.02164595 -0.2606483 -0.03506631 -0.07142644 -0.05816621 -0.1071643 -0.2053091 -0.0517054 -0.06958994 -0.1563773 -0.1250326 -0.1008464 -0.02899158 -0.2811077 -0.1982316 -0.1668061 -0.2012714 -0.1521073 -0.08732542 -0.09612052 -0.1616958 -0.080363 -0.07867049 -0.1050266 -0.05988561 -0.06362883 -0.1090007 -0.05545169 -0.06433676 -0.1100319 -0.05791203 -0.1584216 -0.02322357 -0.1294518 -0.1559276 -0.07498319 -0.05596093 -0.1826196 -0.06735732 -0.05221308 -0.08409236 -0.3269064 -0.1257097 -0.07060379 -0.05127981 -0.03962592 -0.07927837 -0.1943764 -0.1668696 -0.203626 -0.168189 -0.04041727 -0.08457302 -0.1063407 -0.08470346 -0.09269138 -0.2830289 -0.3467183 -0.1914521 -0.1721361 -0.1947809 -0.08094562 -0.182402 -0.08715266 -0.1643926 -0.1602339 -0.08678621 -0.188783 -0.1991878 -0.09917451 -0.1142852 -0.1138654 -0.06214004 -0.1331822 -0.2005686 -0.1502759 -0.0710369 -0.08141714 -0.08618847 -0.05792262 -0.1637214 -0.1223278 -0.1858035 -0.3043469 -0.05918436 -0.08263956 -0.1184491 -0.09041294 -0.08205927 -0.1083889 -0.02956215 -0.2009287 -0.2304499 -0.03517507 -0.1366039 -0.06910571 -0.1951761 -0.1641479 -0.1877826 -0.05813635 -0.1928968 -0.2651885 -0.0883968 -0.2661351 -0.09235623 -0.1114706 -0.05301508 -0.1515505 -0.1950138 -0.09762459 -0.1267925 -0.1100745 -0.04497825 -0.4812033 -0.1280958 -0.1815266 -0.1056911 -0.1010206 -0.09398714 -0.312161 -0.1038837 -0.117305 -0.02855115 -0.2028671 -0.09679792 -0.2106669 -0.2053214 -0.1247197 -0.08865081 -0.3693945 -0.1188193 -0.09374155 -0.08835252 -0.2649407 -0.1743312 -0.08131198 -0.08624195 -0.2286519 -0.1041062 -0.1130055 -0.06425616 -0.1551745 -0.02775795 -0.1802191 -0.2236402 -0.04535795 -0.09672575 -0.1136356 -0.09532423 -0.03803436 -0.2962809 -0.1470678 -0.05199041 -0.07062434 -0.1052889 -0.0653757 -0.06588902 -0.1759435 -0.1936855 -0.05787368 -0.08771881 -0.1604031 -0.2223507 -0.1643568 -0.1774978 -0.1879558 -0.05634956 -0.3044125 -0.2462834 -0.1738001 -0.3156785 -0.04333043 -0.09991103 -0.1996763 -0.1618599 -0.1412148 -0.4434334 -0.1047213 -0.1717658 -0.2271564 -0.1086564 -0.07279689 -0.1846413 -0.1933522 -0.1224578 -0.2026239 -0.1273534 -0.0721386 -0.08508688 -0.1750805 -0.1287556 -0.1207887 -0.05561364 -0.1033631 -0.1669851 -0.1854842 -0.1926629 -0.1687982 -0.1697406 -0.1299984 -0.1149838 -0.2870766 -0.1597876 -0.05503703 -0.08102861 -0.1378365 -0.07096004 -0.1514526 -0.1980919 -0.1227167 -0.07975282 -0.1631605 -0.06400048 -0.0528583 -0.07246653 -0.2528402 -0.07395706 -0.09960474 -0.04138074 -0.1812014 -0.1148371 -0.184239 -0.1792467 -0.07350869 -0.1509082 -0.1814729 -0.08687463 -0.1662876 -0.141569 -0.1176881 -0.1030548 -0.1678545 -0.1641279 -0.2044896 -0.1843555 -0.08564807 -0.1161501 -0.05546735 -0.06331812 -0.1035059 -0.1008742 -0.2126502 -0.2618033 -0.1117667 -0.07277075 -0.1273583 -0.07835295 -0.06734536 -0.1506933 -0.1928157 -0.122225 -0.1699496 -0.1191426 -0.1434821 -0.3282216 -0.1347362 -0.156208 -0.2156531 -0.2761701 -0.06385839 -0.04360226 -0.2015295 -0.266948 -0.3231464 -0.08734617 -0.05688288 -0.05903959 -0.1334667 -0.1216803 -0.3025605 -0.1704888 -0.05119693 -0.1785233 -0.04523377 -0.1021961 -0.2510097 -0.08254373 -0.04599716 -0.1728768 -0.09580261 -0.08023629 -0.2805956 -0.1457337 -0.1193052 -0.2171152 -0.4100257 -0.1804124 -0.1981542 -0.1441611 -0.04866992 -0.1281131 -0.1880674 -0.06329706 -0.05790479 -0.1656483 -0.05229006 -0.1220608 -0.05219462 -0.08262279 -0.3197148 -0.1200062 -0.2861134 -0.03851095 -0.04623899 -0.183984 -0.05753076 -0.08928862 -0.1388557 -0.110274 -0.190635 -0.1476264 -0.0629259 -0.2635312 -0.07493712 -0.1035971 -0.09204021 -0.2603987 -0.1717749 -0.1395653 -0.2175068 -0.1635702 -0.05863156 -0.2225258 -0.3255333 -0.2486194 -0.067756 -0.2988074 -0.1294871 -0.05249453 -0.1081777 -0.1274355 -0.1995443 -0.07029882 -0.1821486 -0.1005938 -0.1502464 -0.1949626 -0.0894651 -0.1736057 -0.1695193 -0.06609589 -0.07435051 -0.1401441 -0.04331858 -0.1874149 -0.08752713 -0.1287027 -0.04048251 -0.08917805 -0.18875 -0.03749935 -0.1670435 -0.1937527 -0.07771815 -0.04495206 -0.05486513 -0.1881404 -0.103952 -0.06004747 -0.2344827 -0.1123148 -0.05519985 -0.1687812 -0.1172855 -0.1193035 -0.1026999 -0.04025027 -0.08004917 -0.09144157 -0.06476004 -0.1990237 -0.2262507 -0.1847951 -0.1094619 -0.0753362 -0.06778593 -0.02110825 -0.07256546 -0.1254522 -0.2584766 -0.0532798 -0.1541338 -0.06344692 -0.07146132 -0.184623 -0.1304314 -0.1168511 -0.1119062 -0.4395403 -0.08401529 -0.1302824 -0.1886862 -0.1045003 -0.1209162 -0.08837419 -0.188282 -0.2865785 -0.1438509 -0.07612382 -0.1337224 -0.09410713 -0.08417153 -0.1567919 -0.03477973 -0.2030131 -0.1982138 -0.06493583 -0.2012499 -0.2004959 -0.06730853 -0.03480791 -0.1248886 -0.271089 -0.1481385 -0.1259125 -0.1796685 -0.06987111 -0.1676096 -0.2065695 -0.1129978 -0.1016519 -0.05532631 -0.1138464 -0.08368847 -0.1498654 -0.08534832 -0.1155612 -0.08330128 -0.06228255 -0.0457573 -0.1449142 -0.08014353 -0.2245879 -0.1388137 -0.05686607 -0.06951766 -0.09229446 -0.07311583 -0.3068224 -0.1538461 -0.1428552 -0.074458 -0.1171895 -0.06576425 -0.06368808 -0.2208753 -0.06485663 -0.1100796 -0.1226777 -0.1200237 -0.04739781 -0.07280345 -0.1793775 -0.05304359 -0.1617562 -0.1468601 -0.06135413 -0.1955033 -0.07813758 -0.04734254 -0.1721772 -0.07029954 -0.04833973 -0.1520456 -0.08311091 -0.07663678 -0.2152716 -0.01985019 -0.06164999 -0.0640714 -0.1491771 -0.1929715 -0.1959574 -0.0523635 -0.1299749 -0.07494863 -0.07981092 -0.1238434 -0.2263897 -0.07306528 -0.1918848 -0.1575894 -0.05437908 -0.08873112 -0.3249903 -0.0723878 -0.1842986 -0.1789766 -0.07494924 -0.1358674 -0.1982547 -0.1932705 -0.09113529 -0.05483523 -0.1185481 -0.1680287 -0.0708975 -0.1171529 -0.06210221 -0.06087321 -0.05910847 -0.2295245 -0.06791532 -0.1980465 -0.07534815 -0.09676492 -0.03015448 -0.1561843 -0.08206439 -0.0817366 -0.1593572 -0.07486562 -0.1621804 -0.06599253 -0.1674275 -0.1753068 -0.06926291 -0.1076537 -0.09460277 -0.09610869 -0.1328247 -0.07268 -0.2284628 -0.08205512 -0.1021577 -0.05570485 -0.194707 -0.1776697 -0.2921474 -0.07605715 -0.09477694 -0.06479591 -0.06423508 -0.184037 -0.1517042 -0.1005978 -0.1872855 -0.1248991 -0.1908388 -0.1824807 -0.1103367 -0.113854 -0.150132 -0.04259836 -0.07186252 -0.1747786 -0.2051631 -0.1303683 -0.1976821 -0.4405724 -0.09016227 -0.09135419 -0.2769178 -0.1807223 -0.2624404 -0.1070715 -0.1964781 -0.203048 -0.04557784 -0.07244375 -0.07281955 -0.05188476 -0.05906065 -0.1618817 -0.1834361 -0.06739574 -0.0577812 -0.07661495 -0.1257647 -0.127836 -0.1010042 -0.06807154 -0.1113527 -0.1153195 -0.1184193 -0.07438423 -0.3035443 -0.0998124 -0.1616679 -0.1277365 -0.1104665 -0.07258043 -0.1829914 -0.1982694 -0.2347798 -0.07040016 -0.4230212 -0.1144273 -0.2477641 -0.1538389 -0.06096099 -0.09070028 -0.18151 -0.05706861 -0.1858303 -0.1953398 -0.3418532 -0.06511398 ]
<!EndOfComponent> 
<Rescale> 1024 1024 
<LearnRateCoef> 0  [ 4.672071 8.87908 5.956489 3.218429 6.619833 5.692269 3.03 5.110844 4.491877 2.98126 4.651976 5.771569 6.066273 6.735228 4.851331 6.232431 10.8364 4.802743 8.628021 6.672186 4.325056 9.33013 8.455605 3.056998 7.452402 5.817745 4.504323 6.01553 5.931117 7.04396 4.33886 5.869561 6.841411 5.049154 4.270393 5.943995 5.781132 7.045987 4.524945 4.813066 5.249019 5.26548 9.057593 4.869061 5.583567 4.323021 3.161947 6.516624 4.028236 5.014184 2.821386 6.882138 7.150319 6.307644 4.261356 4.220536 2.411242 6.851698 4.869037 6.27051 5.298885 5.91684 5.057876 7.316213 5.308934 6.090189 4.102307 4.905856 2.836907 6.456563 4.489721 3.385206 3.007769 5.443562 7.53651 5.374275 7.678257 3.512304 5.285425 3.685392 5.351721 6.302246 6.959139 4.160926 4.450129 6.762159 3.899279 5.369925 2.926458 2.740068 3.974236 6.922982 5.696044 5.114252 6.26736 6.28449 8.615681 2.859195 4.526968 4.175471 5.529629 6.075777 7.199668 4.153887 5.980242 6.225103 2.50282 5.840868 4.87982 5.0392 4.168376 5.423279 5.299635 5.183115 4.273104 6.507816 5.713708 6.028867 5.600786 8.354313 3.527776 5.314862 4.634613 4.456103 5.910107 6.172999 6.052264 4.346108 8.610716 4.465973 6.931237 2.502377 3.89335 7.059721 2.353645 5.042953 7.109152 4.490553 4.490717 5.142269 6.878469 4.975255 6.716868 4.225971 4.578153 5.974751 8.020498 8.210594 6.329243 5.324641 4.601713 4.796307 5.680369 3.272907 4.129367 7.774473 6.468059 7.252581 4.568341 2.999598 4.944417 4.895021 5.69259 5.121735 2.927622 5.255838 4.902525 5.200285 7.831992 5.128996 6.194726 5.268536 4.426198 8.005701 6.177968 2.716004 5.619163 3.157851 6.00233 6.733851 5.011714 5.77549 5.422203 4.809146 3.431134 4.789779 4.175703 3.681988 5.690118 9.281448 4.445461 7.865112 3.684678 6.484965 4.374538 8.288456 4.532553 5.377099 7.434611 7.78686 4.531435 4.454792 4.039739 5.530912 6.108345 5.991446 4.420423 5.28945 5.334527 5.433374 6.382704 4.832686 7.538739 6.668419 4.964218 4.648363 8.331727 4.353059 4.142642 5.403875 3.907293 4.404349 5.766877 4.303794 3.962532 3.075065 5.405919 4.664926 6.388559 6.884348 8.47258 4.481471 4.738303 6.893906 4.360646 3.247139 8.210518 6.022776 5.812492 3.061642 5.264732 4.642432 4.433543 4.570244 4.257227 5.803025 4.265819 6.205108 4.507498 4.271322 4.694659 5.370606 4.334661 5.644413 3.878425 4.491663 5.718565 8.738694 5.056887 5.540499 4.33237 4.873182 7.832374 8.885588 4.860623 4.079168 6.339373 4.015489 4.074448 4.821882 5.223638 6.991594 5.108856 8.235269 5.726612 10.08818 4.423781 5.126609 6.328577 5.284261 3.136453 5.56453 6.198724 3.227314 5.20129 10.39948 2.702589 4.353154 3.257813 7.345559 6.046394 3.24113 2.904909 4.370893 5.15209 4.439378 4.378344 6.227631 4.538018 5.86437 4.637218 7.349468 3.733914 5.989123 11.62324 5.076451 3.395795 3.675695 6.559831 4.410645 3.359467 3.779033 4.711825 4.708013 5.530084 3.815122 7.020024 4.295309 4.605522 4.857597 5.973942 4.820439 4.878598 4.305505 4.482986 6.171511 4.524968 5.937674 7.821701 5.272689 8.693989 5.24378 4.334515 7.288927 4.148923 4.559994 6.010193 4.80233 4.10022 8.131894 4.459391 6.141537 6.40378 5.960766 5.386812 6.172881 7.082341 5.819918 3.213889 7.937667 4.126435 6.071258 4.148833 6.835993 5.162854 6.052489 6.737108 5.909819 5.693059 5.784895 5.285794 6.394804 5.201078 7.911742 8.927949 4.949608 4.313311 4.746151 4.489433 4.712515 7.506055 4.814995 5.321943 7.668415 6.98291 8.049279 5.182715 4.679281 5.760399 4.786863 5.18263 7.072559 5.003067 6.529359 4.982034 3.676744 6.543944 4.716602 7.489737 2.834836 2.622358 5.924126 8.170712 8.790991 5.63587 4.410956 6.123804 5.334586 5.604276 4.6699 5.021044 5.997391 4.907346 3.079393 7.898542 6.601882 4.81199 5.464584 4.783494 6.457958 4.333374 6.859561 6.187307 6.879709 6.156216 3.479048 6.983928 6.430467 4.562102 4.907488 6.437284 9.178286 5.47328 4.959399 5.796787 5.33172 8.689595 3.560483 7.615532 6.706882 6.264034 6.762857 4.234234 7.147804 8.212703 4.163074 4.863927 5.01012 8.565936 2.617065 5.61795 4.732964 4.042925 4.457984 5.700263 7.193481 4.465749 5.620006 7.869678 4.94479 5.575148 5.23113 6.378572 7.556726 5.059182 5.307653 5.993711 4.457737 8.704868 4.984808 4.258173 7.239206 5.671157 4.457971 7.227108 6.867828 6.247262 2.798894 5.050292 7.996038 9.125145 7.893741 6.168227 4.374208 4.223171 4.121424 3.607263 7.747801 5.921577 5.743113 4.696243 5.958805 2.945469 2.731378 4.449079 4.281409 4.303144 5.253813 4.448667 6.267988 4.33158 5.03462 4.246296 4.167293 4.399306 5.729203 4.688677 6.460173 6.936925 4.905579 4.276805 5.077569 5.704024 7.675554 5.809827 5.993411 5.243321 4.782895 4.377659 2.85353 6.841939 5.51752 4.656126 6.731842 6.100833 5.151686 7.970169 4.302545 3.145676 7.900794 5.109908 6.122727 4.426507 4.943834 4.382046 8.505219 3.521456 3.559369 6.350408 3.17007 5.837922 5.798751 6.373387 4.573267 3.202803 5.642264 5.41736 5.804471 7.404636 2.720039 3.79647 4.486063 5.9446 5.86461 5.604052 3.108941 4.299957 5.391394 8.442409 3.335095 6.103642 3.300442 4.258641 5.565747 6.529466 3.019018 5.441902 5.481211 6.458959 3.29496 3.877716 5.943662 7.373035 2.973876 5.717117 7.165 6.090959 3.725603 9.123814 4.543056 3.535355 11.51108 5.538173 5.302325 5.753427 8.09932 2.768782 4.861611 6.80836 5.753092 5.98629 5.147425 6.825145 4.188896 4.351504 5.215374 6.62235 5.00753 3.208989 3.88502 4.457234 4.551739 6.08351 2.839229 3.430069 4.329113 3.154364 8.82227 5.73361 4.10967 4.90775 4.871853 2.749024 4.139936 3.802402 3.370782 4.214816 7.36249 4.567407 4.372762 5.264089 4.371488 5.203903 6.966098 5.084874 4.706041 5.119939 4.630509 8.151864 6.967184 3.709336 4.497804 4.497622 4.549628 4.775193 5.43422 6.274457 3.002924 4.993027 6.207089 5.57573 5.574808 7.790909 3.563221 4.421021 5.457245 4.46365 3.663951 5.631128 7.707971 6.415601 3.359033 6.381999 5.78471 8.467317 4.457377 5.264243 4.298224 4.425181 5.914023 3.543896 3.947042 5.704739 4.54518 4.853219 4.316202 6.752174 4.581241 4.579808 3.597893 4.471827 5.67649 5.869775 7.035299 5.755913 5.919359 5.658487 3.269745 3.106336 5.782643 5.675063 5.395154 5.23807 6.460137 4.455538 4.392816 5.17728 4.084328 5.671815 3.99585 2.771881 3.935522 3.658417 5.483534 3.114021 5.98799 6.669766 4.318397 2.959505 2.463926 4.440448 10.51289 5.79629 5.20505 5.350373 2.654441 4.39066 7.262635 4.274897 8.830222 5.910209 3.183458 6.007698 8.992839 4.493506 4.64504 6.274898 3.18036 5.503733 5.361964 3.050262 2.79511 4.256703 4.319115 4.822451 7.110746 4.443999 4.492284 5.758074 5.346385 3.86586 7.573419 5.381267 7.091261 6.577701 2.973748 4.476053 2.932769 6.698824 6.63439 4.521137 5.984037 5.206388 4.804223 5.612984 4.459723 4.428966 9.152395 3.19518 4.792419 6.024493 4.311563 3.081688 4.077154 4.955186 5.213543 3.883904 7.782086 3.057379 2.886995 3.963008 6.796272 2.841784 5.269351 5.72849 6.017995 5.599079 4.336984 5.836884 4.442598 4.322474 4.884109 4.385678 4.606143 4.255992 4.945559 6.891782 4.601648 4.287596 6.661417 4.389912 4.610385 4.44393 7.184101 6.482462 4.141608 7.688426 3.747738 3.348374 7.025617 9.45533 6.020856 4.719011 6.847467 6.828601 3.275979 5.326694 6.658444 4.174574 5.252432 5.168229 6.23543 6.866689 6.037519 5.720629 6.424816 4.337721 3.263815 4.431935 5.417507 4.917798 7.387846 9.388183 6.546333 5.225056 3.148783 8.391799 5.025464 6.054352 4.988117 4.562272 5.574811 5.305922 5.593422 2.617063 5.55002 5.145766 4.427147 5.047919 5.365384 6.682966 4.535264 2.889164 5.180557 6.473698 5.220927 6.497095 5.746922 4.391706 7.957226 4.282565 4.275801 5.848884 4.020542 3.921881 7.785641 8.427089 4.919478 2.93315 5.350334 5.163404 4.734683 5.70143 4.909267 3.501848 6.05985 4.271461 6.345677 5.718878 4.556595 5.446161 5.972456 4.329069 6.481504 6.342779 7.106953 4.558524 6.426877 3.312776 4.943663 6.425458 6.270342 5.805119 7.297581 2.457362 4.863682 3.855547 6.181734 4.98488 5.995552 5.851611 3.217129 4.967347 4.768333 4.292798 5.588365 7.446826 6.065552 4.271721 6.319472 3.729363 5.026367 7.040802 4.155453 6.067258 7.46911 4.015686 5.639539 7.048262 3.724385 6.839349 6.924706 3.152116 9.183693 7.217132 5.457138 4.245613 3.579121 4.136339 6.086124 4.422908 5.188613 6.315428 5.487512 3.717691 7.926498 4.309017 4.148037 6.688181 4.996695 2.383816 6.02344 4.419184 4.429163 5.467046 3.640488 4.342256 4.480595 4.715105 5.718789 4.948781 3.739781 6.983884 4.847621 5.724857 6.262341 5.38293 3.226758 6.8666 4.356837 7.525696 6.102648 9.05485 4.763246 5.897126 6.362904 5.076059 6.32273 4.34544 5.676809 3.61312 4.382262 5.256736 6.594511 5.339324 5.563356 4.995049 7.091994 3.586872 5.98616 6.059683 7.831078 4.523857 4.86977 2.882536 5.107902 4.387717 6.178708 6.341931 4.367393 4.899081 5.460931 4.24496 4.55 4.459598 4.514722 5.906591 4.983699 4.825972 6.591164 6.579602 4.918625 3.356213 4.694735 4.423131 2.75656 6.691053 5.736518 3.169302 3.307947 3.008908 5.33816 4.422106 3.846819 7.065997 7.395587 6.943958 6.302129 5.69397 4.044514 4.563677 7.028115 6.265445 5.868267 5.560579 5.042087 6.371806 5.323194 5.011564 5.679767 6.031192 7.334353 2.902529 5.502282 5.22623 5.081419 5.751439 4.966058 4.639578 4.456594 3.371535 5.697854 2.604822 6.207824 3.318351 4.876619 5.658033 5.511786 3.973622 5.466373 3.70888 4.378063 2.414043 5.435977 ]
<!EndOfComponent> 
</Nnet> 
