<Nnet> 
<AddShift> 1024 1024 
<LearnRateCoef> 0  [ -0.1837792 -0.1078306 -0.1378129 -0.05753342 -0.1632776 -0.1373876 -0.1133804 -0.2918639 -0.1762896 -0.1870995 -0.145088 -0.1579178 -0.09928565 -0.1094183 -0.1749642 -0.06292307 -0.1409721 -0.1580075 -0.1860702 -0.1237104 -0.120484 -0.1437013 -0.1153778 -0.1592793 -0.09593631 -0.1519228 -0.1706482 -0.1701644 -0.08429845 -0.1429544 -0.1117989 -0.1228155 -0.1066891 -0.1126318 -0.1112156 -0.1421168 -0.1148734 -0.1993726 -0.1659009 -0.1337356 -0.1133516 -0.05438788 -0.09177528 -0.1019109 -0.155677 -0.1338581 -0.1160814 -0.09486319 -0.05586939 -0.1840581 -0.1154519 -0.144727 -0.1843924 -0.1136046 -0.1519919 -0.1610519 -0.1180456 -0.1525825 -0.1567977 -0.1280168 -0.09454701 -0.1498749 -0.3848082 -0.09411816 -0.1637054 -0.1324081 -0.1173363 -0.12815 -0.166955 -0.1368529 -0.1371588 -0.14942 -0.1351952 -0.1341472 -0.06577262 -0.1356019 -0.1238334 -0.1417921 -0.08815086 -0.1982797 -0.1153699 -0.1621807 -0.1052378 -0.1399457 -0.1973802 -0.1294415 -0.1418877 -0.1149432 -0.1155708 -0.31429 -0.1461143 -0.1221895 -0.1290102 -0.1353409 -0.09037782 -0.1166891 -0.08365926 -0.1339538 -0.1314882 -0.2201063 -0.165246 -0.1659842 -0.1227056 -0.1363082 -0.1096996 -0.117682 -0.09618763 -0.1368322 -0.1344601 -0.1122146 -0.1243701 -0.1303453 -0.1392031 -0.07192922 -0.1612297 -0.1327929 -0.1136573 -0.1631199 -0.04343001 -0.1364073 -0.1346769 -0.1070297 -0.1333184 -0.08192049 -0.1459453 -0.07825505 -0.1186098 -0.09028117 -0.1518268 -0.1253334 -0.1195212 -0.1492884 -0.1299894 -0.1397466 -0.106958 -0.08996312 -0.1202794 -0.1699743 -0.1137837 -0.1327207 -0.09719162 -0.1210517 -0.1134982 -0.2623504 -0.1241962 -0.1514463 -0.1487812 -0.3177332 -0.1092026 -0.2028309 -0.104984 -0.1252102 -0.1564664 -0.1090293 -0.1373694 -0.1136926 -0.1732712 -0.1414905 -0.141097 -0.1857711 -0.2363 -0.1623241 -0.1249093 -0.1239796 -0.08547176 -0.1423606 -0.1294073 -0.1334311 -0.1269508 -0.1075611 -0.1537883 -0.09455822 -0.1299094 -0.1177802 -0.1816149 -0.136986 -0.1889439 -0.1280028 -0.1260536 -0.1560054 -0.129664 -0.1462021 -0.1635399 -0.1485912 -0.174248 -0.1557452 -0.1247431 -0.1528394 -0.1402699 -0.1128864 -0.1566214 -0.1501929 -0.1080436 -0.09528901 -0.1143621 -0.129852 -0.1187666 -0.1415806 -0.1155406 -0.1093864 -0.1699367 -0.2095015 -0.1334401 -0.1077174 -0.1166152 -0.1502379 -0.1289984 -0.1821829 -0.1069815 -0.378229 -0.1440058 -0.350944 -0.120863 -0.1189488 -0.09592498 -0.128859 -0.1396702 -0.1059073 -0.1121701 -0.09806304 -0.1159079 -0.05642826 -0.08483094 -0.1483748 -0.1779317 -0.1145297 -0.1656296 -0.2430951 -0.168007 -0.1294231 -0.1537248 -0.1184775 -0.2137788 -0.1195714 -0.1218957 -0.1100575 -0.1403965 -0.1065743 -0.07958979 -0.147298 -0.1026637 -0.125078 -0.1273513 -0.1160381 -0.205231 -0.1136254 -0.1597871 -0.1583236 -0.1224577 -0.1088159 -0.1249864 -0.1263067 -0.2422373 -0.09466726 -0.1067388 -0.09535768 -0.1259071 -0.1348321 -0.1231868 -0.07108351 -0.1334545 -0.1043857 -0.2265406 -0.08855116 -0.1151057 -0.1522771 -0.139002 -0.1379938 -0.1250118 -0.1226587 -0.1481574 -0.134378 -0.1407632 -0.1636838 -0.1617073 -0.1207807 -0.1773795 -0.098577 -0.1308145 -0.1182762 -0.1802187 -0.1240265 -0.1121249 -0.1480014 -0.09803509 -0.1467464 -0.1712885 -0.1137781 -0.1508287 -0.1094638 -0.1201289 -0.1753357 -0.1847543 -0.1507141 -0.1048597 -0.1286418 -0.1257818 -0.1636763 -0.09467594 -0.1806049 -0.1405878 -0.1026679 -0.1453409 -0.1647439 -0.1438443 -0.1263314 -0.1240783 -0.1013006 -0.07347406 -0.1409345 -0.1065761 -0.1285764 -0.1402126 -0.2055364 -0.1113345 -0.1394498 -0.1347092 -0.1191906 -0.1078307 -0.09537351 -0.1581609 -0.09084306 -0.09627225 -0.1662833 -0.1269861 -0.2137801 -0.1262459 -0.1386022 -0.1150477 -0.1932139 -0.2385259 -0.05392866 -0.1527947 -0.08741817 -0.1173278 -0.1231165 -0.09900586 -0.1201634 -0.1375455 -0.130216 -0.1060227 -0.1094688 -0.1099731 -0.1251992 -0.1186646 -0.09130158 -0.09913283 -0.1535658 -0.1262277 -0.1003153 -0.1949421 -0.1703935 -0.09432571 -0.1479921 -0.1498063 -0.1807086 -0.1157088 -0.09336598 -0.1522451 -0.1566352 -0.1553738 -0.1184894 -0.1416367 -0.145758 -0.1436918 -0.1753649 -0.1192287 -0.1546824 -0.1491657 -0.153178 -0.2354808 -0.07779983 -0.1567534 -0.1358653 -0.1673389 -0.1348248 -0.08690095 -0.1145661 -0.1403635 -0.168841 -0.1251356 -0.1394167 -0.1359453 -0.1907459 -0.1351153 -0.09859588 -0.1268654 -0.06690144 -0.1429536 -0.1658433 -0.1336572 -0.125255 -0.1083747 -0.1091563 -0.1017588 -0.1811041 -0.1140978 -0.1406652 -0.1114518 -0.1270067 -0.1309558 -0.1306842 -0.1635293 -0.1653044 -0.1358752 -0.139361 -0.09267299 -0.203993 -0.1341546 -0.1096807 -0.0924273 -0.1113241 -0.1231532 -0.1801154 -0.1276492 -0.1787189 -0.1145727 -0.1038412 -0.1439543 -0.1144283 -0.07423308 -0.124578 -0.1325344 -0.1367001 -0.1132308 -0.08412237 -0.1679401 -0.1571896 -0.1282187 -0.1125929 -0.1503655 -0.1369529 -0.1376103 -0.1200449 -0.2032744 -0.1316618 -0.1275844 -0.1048646 -0.1217951 -0.1386211 -0.1838084 -0.09582477 -0.05119533 -0.1201755 -0.1245523 -0.1537369 -0.101637 -0.1975858 -0.1144381 -0.1436533 -0.1875986 -0.1181041 -0.1317168 -0.1236715 -0.1242536 -0.06724995 -0.1073259 -0.108173 -0.1314324 -0.0845319 -0.128382 -0.1166233 -0.1164308 -0.1492023 -0.1369115 -0.1490795 -0.1514281 -0.1570626 -0.09710661 -0.1142808 -0.1165472 -0.09652349 -0.1223221 -0.07812332 -0.1234898 -0.1111289 -0.1040451 -0.1362363 -0.135745 -0.1278947 -0.1176794 -0.1083597 -0.1243127 -0.1144521 -0.1213204 -0.1298966 -0.1086311 -0.1202131 -0.07539442 -0.1947954 -0.1123448 -0.1451497 -0.1274846 -0.1455044 -0.1559812 -0.1663603 -0.0671228 -0.1340142 -0.2036641 -0.1294021 -0.1133748 -0.1511114 -0.1310444 -0.1275472 -0.1580606 -0.1413072 -0.1194876 -0.1505966 -0.1210333 -0.1467173 -0.1695887 -0.1447884 -0.1606027 -0.117481 -0.1322898 -0.07019199 -0.1473439 -0.09625609 -0.1219383 -0.1182223 -0.1052582 -0.108562 -0.1095671 -0.1242824 -0.1648677 -0.1494856 -0.1703739 -0.1533155 -0.1566169 -0.1153384 -0.09296335 -0.09096058 -0.1308899 -0.1663206 -0.1299618 -0.1687652 -0.03611307 -0.1560871 -0.1076107 -0.1617529 -0.1355516 -0.1513639 -0.1346778 -0.1413348 -0.1318449 -0.1372547 -0.1292592 -0.1440997 -0.1822054 -0.1382963 -0.1290541 -0.1451022 -0.1533466 -0.1397919 -0.1214157 -0.1586073 -0.09781262 -0.09914058 -0.1186228 -0.1068099 -0.138994 -0.1572117 -0.1164219 -0.1163135 -0.1685435 -0.1155628 -0.09868 -0.08668958 -0.162626 -0.1655792 -0.1389727 -0.1565076 -0.1432285 -0.1016102 -0.1315182 -0.1128449 -0.07281079 -0.1339939 -0.1318582 -0.1669101 -0.07213496 -0.1262432 -0.1176194 -0.09374786 -0.1348921 -0.1741294 -0.1843848 -0.1873654 -0.1310031 -0.1422968 -0.1387376 -0.1258687 -0.1488999 -0.1418589 -0.1048564 -0.1073633 -0.1763126 -0.089054 -0.132832 -0.1243802 -0.08819324 -0.1644623 -0.1668285 -0.1543839 -0.1340926 -0.1264526 -0.1115626 -0.2630897 -0.2740052 -0.1653606 -0.07232117 -0.1065155 -0.152832 -0.1185746 -0.1180173 -0.1222339 -0.133627 -0.1223564 -0.1619815 -0.1119259 -0.232455 -0.1319516 -0.252061 -0.1045174 -0.1007028 -0.1332197 -0.1659026 -0.1109431 -0.1237292 -0.1005711 -0.120033 -0.1407406 -0.1717852 -0.1924129 -0.1416383 -0.1019857 -0.07797145 -0.1248873 -0.123906 -0.1280774 -0.1197294 -0.2179295 -0.06074359 -0.136927 -0.1130227 -0.1601962 -0.1235688 -0.1343191 -0.1260483 -0.1345229 -0.1283565 -0.1044807 -0.1082988 -0.06122515 -0.1995297 -0.1366682 -0.1170481 -0.1102729 -0.1222491 -0.1420938 -0.07422539 -0.1686983 -0.1219758 -0.1425571 -0.1109872 -0.1383486 -0.1047683 -0.1225091 -0.1397486 -0.1523646 -0.1307444 -0.1034179 -0.1942168 -0.09182434 -0.1126772 -0.1542656 -0.1154262 -0.1148409 -0.1449561 -0.1136359 -0.1508951 -0.09760133 -0.1120411 -0.1292876 -0.09850286 -0.1451512 -0.1531566 -0.1162021 -0.1949313 -0.1363705 -0.08941436 -0.1536323 -0.100998 -0.1515311 -0.1129261 -0.1153438 -0.1437618 -0.1315437 -0.1087922 -0.1475759 -0.1207849 -0.1409686 -0.1587272 -0.1105917 -0.2439789 -0.1261071 -0.1258165 -0.2198701 -0.1374165 -0.1264828 -0.1503682 -0.1948704 -0.1982965 -0.1374743 -0.1724544 -0.1005062 -0.06881214 -0.2453986 -0.184919 -0.1814793 -0.1807772 -0.1655466 -0.1892115 -0.1306684 -0.1305861 -0.09737058 -0.1160003 -0.1428804 -0.1400218 -0.1313396 -0.1470701 -0.1650197 -0.1611108 -0.2489279 -0.09694952 -0.1269655 -0.1034385 -0.1193751 -0.1266954 -0.1115234 -0.1193309 -0.1191169 -0.1268971 -0.1364788 -0.1177392 -0.159301 -0.1049825 -0.1586356 -0.1169901 -0.1418411 -0.1562257 -0.09764799 -0.130999 -0.1137384 -0.1008516 -0.12555 -0.1341902 -0.1931215 -0.1508724 -0.1199192 -0.1496605 -0.1466336 -0.1816583 -0.1543516 -0.1879136 -0.1650883 -0.118582 -0.1124905 -0.1391369 -0.1777442 -0.09189826 -0.1819584 -0.1505271 -0.2085564 -0.1171314 -0.1285334 -0.1621428 -0.1538412 -0.128349 -0.1714376 -0.2502675 -0.08398489 -0.1608588 -0.156505 -0.1388897 -0.1720788 -0.193765 -0.1158054 -0.1861694 -0.09644032 -0.1851078 -0.09942453 -0.1307757 -0.1356487 -0.1192345 -0.1165469 -0.1402606 -0.1274483 -0.1327203 -0.07615133 -0.0990035 -0.1804608 -0.1465775 -0.1455019 -0.3575047 -0.132357 -0.1366517 -0.1641347 -0.1613935 -0.1385886 -0.1492215 -0.1446802 -0.1275971 -0.171294 -0.1085492 -0.2148408 -0.1252436 -0.1397345 -0.1436758 -0.1000144 -0.1309592 -0.1082725 -0.1152784 -0.1681283 -0.1465156 -0.1273008 -0.1374656 -0.1273261 -0.1239989 -0.1783042 -0.2019517 -0.1495425 -0.09557264 -0.2607068 -0.1278453 -0.1424959 -0.09386718 -0.1413034 -0.1024202 -0.1663036 -0.1521589 -0.1116527 -0.134104 -0.1726296 -0.1022037 -0.3164393 -0.1164462 -0.1385453 -0.09657038 -0.1336523 -0.125302 -0.1162558 -0.1299436 -0.1768347 -0.1217471 -0.1421148 -0.1373765 -0.1617045 -0.2497447 -0.1528998 -0.1264612 -0.0850951 -0.1100377 -0.1149245 -0.1160418 -0.2086978 -0.1012838 -0.1272126 -0.1291171 -0.2273071 -0.1585344 -0.1196414 -0.1162464 -0.1345671 -0.09211617 -0.1385536 -0.133816 -0.16303 -0.1280752 -0.1129665 -0.1528941 -0.1102613 -0.1092289 -0.09570328 -0.08737382 -0.134132 -0.1156986 -0.1715984 -0.1138717 -0.1414623 -0.1396654 -0.145366 -0.1497293 -0.1062918 -0.1017798 -0.2119242 -0.1129522 -0.2069215 -0.1353481 -0.1338393 -0.1141782 -0.10831 -0.1594728 -0.1410528 -0.1921683 -0.1595685 -0.1270689 -0.09051641 -0.100076 -0.1542496 -0.1373588 -0.1084239 -0.1589103 -0.1459799 -0.108037 -0.1398908 -0.1455017 -0.1234701 -0.1356474 -0.1518583 -0.09437426 -0.1322483 -0.1040767 -0.1418568 -0.08520808 -0.1690289 -0.140567 -0.2242265 -0.1829267 -0.1093914 -0.117384 -0.1210565 -0.09169204 -0.1601422 -0.0863887 -0.2603975 -0.1024046 -0.1483805 -0.1682795 -0.1629652 -0.1157957 -0.1247135 -0.1218616 -0.1807943 -0.159387 -0.1570689 -0.1303677 -0.08228372 -0.1614872 -0.08477291 -0.04938016 -0.2450788 -0.1651277 -0.1305028 -0.1310317 -0.1389677 -0.08742157 -0.1251709 -0.102321 -0.122363 -0.1427416 -0.1150259 -0.1356099 -0.1203672 -0.1359191 -0.1091345 -0.113503 -0.1311331 -0.1243801 -0.1332881 -0.1289086 -0.1186487 -0.08635341 -0.1358813 -0.1106551 -0.1050784 -0.1628805 -0.1320467 -0.1243625 -0.139783 -0.08119858 -0.1203858 -0.3441103 -0.1532629 -0.1718228 -0.09898589 -0.1334282 -0.1625346 -0.1718023 -0.1519106 -0.1569887 -0.1236637 -0.1421616 -0.1287453 -0.09681606 -0.1567428 -0.135948 -0.162196 -0.1260232 -0.1163391 -0.06136233 -0.1147798 -0.0767729 -0.1274686 -0.1054025 -0.09502409 -0.1476245 -0.1556024 -0.1426519 -0.1694654 -0.1534114 -0.1328237 -0.1240014 -0.1576127 -0.1664219 -0.1525621 -0.1407453 -0.09576517 -0.08314621 -0.1303243 -0.1480256 -0.1422853 -0.1330059 -0.1100242 ]
<!EndOfComponent> 
<Rescale> 1024 1024 
<LearnRateCoef> 0  [ 3.984762 5.34282 5.331347 8.432026 4.778996 5.246353 6.382367 3.052609 4.497576 4.002041 5.551352 5.0557 6.453493 5.593888 4.655866 9.561535 5.842436 4.516303 3.853132 5.843772 5.556607 4.560134 5.235363 5.314476 4.782161 4.628573 4.542972 4.696635 6.954551 4.40749 5.641431 7.85525 6.26632 5.543964 6.047579 5.187974 5.676941 3.756578 5.409291 5.874709 6.319976 5.356233 6.168473 5.936621 5.098544 5.415936 5.959091 6.390213 5.225759 4.073885 6.539685 4.552682 4.749885 5.521679 4.997383 4.992731 5.339884 4.865154 5.048485 5.384963 5.325934 5.263365 2.256764 6.086708 4.770936 5.851573 5.349323 4.781384 4.491995 5.518879 6.652457 6.103663 5.510995 4.655799 8.186119 4.594635 4.968105 4.999256 6.677226 3.639848 6.833952 4.04549 5.555373 5.01027 3.093556 5.69113 5.003589 5.667349 6.550543 2.525438 3.612717 5.970028 6.466575 5.411946 6.782093 7.0449 4.483424 6.077697 5.503715 3.219941 4.269009 4.914186 5.208498 5.24949 4.376961 6.085273 5.582324 4.983168 5.568319 5.806655 5.382709 5.513595 5.320768 8.484095 3.321931 6.791584 6.291762 4.780253 6.405444 4.791892 4.726541 6.084341 5.175296 7.970038 5.431864 6.850398 6.452514 6.291031 5.010406 5.238859 6.235742 5.163929 5.575357 5.253438 6.811948 5.944622 5.531858 4.492382 5.761569 4.827571 5.647194 5.423069 5.921175 3.012522 4.814884 5.161363 4.354183 2.616689 3.535948 3.257061 5.771274 4.552876 5.59464 5.882155 5.423261 4.144224 4.543373 5.059971 5.806161 3.355198 3.740077 4.343731 6.232618 6.796957 5.342031 6.549923 6.173878 5.651073 5.026184 6.022576 5.676514 6.559363 4.836019 6.294367 3.792316 4.997317 3.612211 5.813536 5.649436 4.853304 5.131542 6.127279 4.432875 5.150459 4.913002 5.545386 3.869148 4.441191 6.185621 5.446713 5.668592 5.572176 6.543542 5.728923 6.243039 4.487342 5.227962 5.646675 6.693219 5.102766 5.942258 4.112894 4.90009 7.388118 5.04168 4.977834 5.812301 3.956248 5.825123 2.337155 5.719603 2.284575 5.019257 5.998769 5.128719 4.894061 4.734723 5.137237 7.100115 5.685146 6.545137 8.085904 5.105865 4.57556 4.315551 7.1805 3.711892 2.95208 5.302964 4.797194 5.446887 4.586686 3.445498 5.214883 6.952331 5.184606 5.224417 5.51462 6.441041 3.713065 5.739089 5.45614 5.526582 5.791091 3.782529 6.278477 4.880672 5.525175 5.720319 5.226322 6.045118 6.069329 3.276723 6.72879 6.388764 6.01379 4.571309 4.956842 5.373909 6.537212 5.666714 5.459669 3.10814 4.860888 4.984147 5.151074 5.401869 5.052993 6.705191 4.445558 5.164491 5.829762 4.64713 3.519377 5.136106 6.128121 4.132812 6.197812 5.842069 5.680668 4.300239 6.081365 5.323832 5.124089 6.308857 4.695415 4.542003 4.727737 4.175746 5.910893 6.618773 4.543053 3.319153 4.980092 5.202273 5.715787 6.61728 4.208894 5.630223 4.758039 5.351754 6.789701 5.473291 6.458582 5.18462 4.764105 5.754424 5.474267 6.123234 5.229975 4.924845 5.724051 5.250016 4.048658 4.70362 5.093203 5.155395 4.470948 5.946698 6.704715 4.341945 6.668457 6.352378 3.884651 5.435262 3.177809 6.174167 5.364917 4.518872 4.404408 3.719436 5.783962 5.221795 7.892473 5.98332 4.545292 6.365195 4.803596 4.968852 4.666422 5.061389 5.37629 5.476059 5.398297 5.673046 5.008147 6.53026 4.886125 4.578615 6.914869 4.149321 3.53281 6.297059 5.415806 5.393402 3.824844 6.080493 5.096409 4.592384 5.099372 4.545646 5.851753 5.68307 5.050162 5.355076 3.190421 6.557562 4.052279 5.21737 6.66081 3.418696 7.980738 4.290277 4.349793 4.619746 5.214744 5.380971 6.008979 6.349768 4.936151 5.070897 5.02583 4.471151 3.415043 5.679515 5.332845 3.417714 5.893324 5.689739 4.574348 5.89434 4.25337 5.101677 6.353092 4.641785 4.839354 6.209259 4.862037 5.716844 5.441963 5.258684 5.047237 4.422812 3.906662 4.445709 4.565981 5.007238 3.252735 5.083323 4.094035 5.776305 6.338412 6.294327 4.488966 5.452431 4.041294 5.80825 7.358592 4.359981 6.631515 6.892298 5.414281 4.393231 5.003107 6.181745 7.411372 4.321995 5.407704 4.853505 5.622107 4.723056 5.109734 5.578598 5.784614 3.531725 6.409294 5.819283 7.126238 5.862995 3.592608 5.092602 5.865082 10.42864 5.575689 5.972885 4.724001 6.962699 3.252093 5.994191 4.53976 3.428644 7.042943 6.589946 5.745838 5.448171 6.683639 6.079428 5.77121 5.723922 6.072002 5.395451 4.905704 5.355189 5.107085 5.602721 4.96886 4.809614 4.121813 5.443955 5.965128 5.425769 6.179076 4.725722 7.108325 6.828453 6.067533 7.285455 5.718283 5.386303 5.415157 5.617702 6.164563 3.757444 4.706582 5.317074 5.357341 4.539335 5.64849 7.721797 3.849059 4.600487 5.422074 4.739235 5.483811 4.88087 5.060117 8.686268 5.138437 4.246465 5.467469 5.926213 5.381799 5.475723 5.515237 5.087104 5.175725 5.096198 5.349711 6.444901 5.680923 4.926592 4.672971 4.675231 5.660569 5.242585 8.392776 3.529955 5.522946 4.527395 4.967108 5.265429 4.891021 7.165226 6.248961 4.8756 5.152832 4.776991 4.604856 5.312227 5.937357 7.096876 6.848731 5.861663 4.907482 5.201975 5.190834 10.90447 5.23278 6.045681 5.230251 5.841001 4.935863 5.455739 5.419974 5.531706 5.043696 4.61408 5.008096 4.062101 5.369641 4.471459 6.033682 5.374503 5.203704 6.085873 4.772586 5.603731 5.371013 5.772069 6.811223 4.206814 5.043074 6.123905 6.077357 5.005302 6.115047 6.295572 6.751187 3.576515 5.04037 5.261948 5.368524 5.451131 5.329638 5.394969 4.866332 6.686666 6.009981 5.031654 4.155856 6.040034 5.570462 5.855254 5.873515 5.398599 4.634359 3.57761 3.727247 5.017564 5.305677 5.169397 4.670813 4.750472 5.266244 6.557463 6.067197 3.451486 6.265634 5.143773 6.48092 6.173913 3.721917 4.13027 5.800346 4.609076 5.988636 6.512398 2.683154 2.945976 5.289456 7.781327 6.394023 5.363092 5.684029 4.841087 5.772712 4.481289 6.005702 5.030742 6.261429 3.434971 4.346467 3.163891 5.681388 6.036398 4.505857 5.00301 5.783331 5.610332 6.619959 5.291052 5.706798 3.263514 4.835033 4.612147 6.486763 5.784402 5.450648 5.773024 5.622774 5.042357 3.045539 5.112005 4.265884 6.140843 3.568737 5.287412 5.893051 4.842674 4.981184 5.591919 6.499758 6.494462 7.098495 4.290719 4.948807 5.846103 5.744928 5.153094 5.979496 7.153061 5.500391 4.752595 5.17043 5.460584 4.9132 6.086221 5.680552 4.48046 4.91932 4.042057 6.082788 4.621537 5.616287 5.65557 4.610431 6.18444 5.685814 5.510095 4.307259 4.6799 5.624564 5.034262 5.509013 6.035276 5.265222 5.601959 5.805952 4.39 5.746335 5.645627 5.806925 5.62999 3.545417 8.325547 5.394179 3.671393 5.226396 5.678822 4.580215 4.081044 4.752616 3.73881 6.100928 3.056648 4.135412 5.692623 3.061107 5.6976 6.791238 5.832429 4.22795 3.626361 5.403029 4.572381 4.34397 7.374475 3.444579 3.618218 3.437333 5.226028 6.062946 4.353828 5.980825 5.621049 7.474847 6.295534 5.874148 5.284273 5.383362 4.860165 4.698317 5.726457 3.028486 5.347399 5.36778 5.637818 4.159091 5.920791 5.654195 6.058098 4.822307 4.776975 5.402473 5.134888 3.711174 5.933123 5.096622 6.474848 4.972451 4.894438 6.161829 5.35897 4.956197 6.346063 5.881854 4.976229 4.495014 4.769429 5.411564 5.500239 5.669845 3.507947 4.774833 4.45879 5.160681 6.081023 4.890445 6.02074 3.91215 6.132976 4.45522 4.905141 3.517071 5.61061 5.364802 4.742535 5.168358 6.192901 4.15871 3.183742 7.096851 5.610407 5.615239 5.722572 4.52282 4.398414 3.87669 5.03525 6.214388 3.129007 5.636784 4.671941 5.427882 5.0158 5.388675 5.021775 5.673625 6.353545 7.597138 6.224316 3.51491 5.20047 4.201148 2.517426 5.686233 5.784417 4.756914 5.048947 5.251835 5.346413 5.34616 5.285291 4.519424 5.294521 3.4212 5.591538 5.443089 5.168079 4.563012 5.063303 6.555425 6.187927 5.475215 4.265015 4.573574 5.411377 6.206231 5.722154 3.609337 3.295746 5.045229 7.192795 2.787132 7.366209 4.418375 5.787008 4.645636 6.749907 4.493214 4.47266 6.145027 4.086837 4.763226 6.113212 2.983744 4.387941 4.85163 6.125172 5.425002 4.609924 4.997811 5.037498 3.306374 5.914808 5.909304 5.259082 4.762249 3.032223 5.075522 5.120188 6.213887 7.142345 7.375003 6.379525 3.478868 6.99501 6.115399 4.702968 2.815311 4.854599 4.871973 6.493255 5.089117 7.378329 5.161141 5.907593 4.836768 6.063611 5.862741 4.982595 6.07144 6.709347 5.858274 7.199617 5.179943 6.511464 3.908196 6.93351 5.055497 5.142053 5.537992 5.769307 6.682031 6.47221 3.511275 7.155967 4.119628 5.678336 6.796682 5.508098 5.429481 5.477794 4.839643 3.873406 4.346293 6.068228 6.798559 6.242344 5.278992 5.816645 6.236831 5.357593 5.641451 6.041877 4.531128 4.839444 6.203707 5.623305 5.474284 6.192964 6.674503 6.135676 5.346249 6.034779 4.155749 5.747281 3.508111 3.230085 5.874312 5.752528 4.768343 7.841894 4.258405 7.024899 3.220923 6.731461 6.209317 5.59179 4.833901 5.363571 4.79626 4.808495 4.44865 4.901051 4.528366 5.461846 6.450127 3.905092 6.686918 6.792236 2.900551 4.810723 4.776097 6.443563 5.122462 4.314721 7.138198 4.403093 5.29797 4.636022 5.457919 4.129494 5.19823 5.578499 6.286022 5.77855 5.468225 5.456477 5.675353 5.152584 5.925319 6.123662 5.599382 6.41589 5.131561 5.660708 5.307319 5.419446 5.924364 7.076505 4.988147 2.318405 4.049715 4.766916 7.715194 5.840999 3.479881 4.731052 4.642559 5.019145 5.983067 5.764326 4.025207 7.323363 5.959623 5.484004 4.64676 4.833375 6.490064 6.302128 5.86327 7.805757 5.096857 6.1197 7.186731 4.958116 4.12994 5.20163 4.960473 6.160864 4.421427 6.032485 5.307395 4.7161 5.813748 6.265592 5.82087 5.734302 5.544405 4.802711 5.22034 5.594769 6.560567 ]
<!EndOfComponent> 
</Nnet> 
