<Nnet> 
<AddShift> 1024 1024 
<LearnRateCoef> 0  [ -0.09805787 -0.1188736 -0.1118091 -0.032371 -0.1601427 -0.1578112 -0.1033623 -0.1314141 -0.1113726 -0.07824168 -0.106928 -0.3159044 -0.08739434 -0.1151296 -0.1258928 -0.1585076 -0.1340854 -0.1289596 -0.05232155 -0.102818 -0.07491192 -0.1021838 -0.1311772 -0.06924142 -0.1329783 -0.08371612 -0.164336 -0.08500719 -0.1200289 -0.09708002 -0.06259502 -0.167528 -0.143175 -0.1189395 -0.1297581 -0.08344266 -0.1233082 -0.1295081 -0.05303488 -0.102548 -0.06811554 -0.07607564 -0.1021796 -0.0876849 -0.09465388 -0.0727366 -0.1431488 -0.2054536 -0.05532512 -0.1245098 -0.110139 -0.02301135 -0.1388135 -0.09751861 -0.1000636 -0.1389714 -0.2709936 -0.1801302 -0.09376573 -0.1354731 -0.2330095 -0.1254303 -0.2447787 -0.09291509 -0.1108862 -0.2165133 -0.1152204 -0.08917661 -0.1197962 -0.07972882 -0.09691878 -0.07164115 -0.07323013 -0.1421676 -0.04938629 -0.09690809 -0.1336591 -0.1396624 -0.2274219 -0.0913891 -0.06289075 -0.3288283 -0.09215642 -0.08422526 -0.1170378 -0.1822117 -0.1647958 -0.1515052 -0.03932663 -0.1828989 -0.06005435 -0.1043749 -0.05796281 -0.07620648 -0.1159243 -0.1129404 -0.1169003 -0.05160706 -0.09674641 -0.2243185 -0.1315639 -0.07618511 -0.08419508 -0.1013309 -0.08092352 -0.07379014 -0.1276106 -0.05585673 -0.1544285 -0.08392409 -0.114737 -0.1936831 -0.04517392 -0.08843321 -0.08654347 -0.06079786 -0.2755605 -0.1123548 -0.2223027 -0.09623729 -0.1262869 -0.1259174 -0.03264955 -0.1116679 -0.05818886 -0.1302821 -0.09162862 -0.09918331 -0.1822285 -0.1838616 -0.09461515 -0.1172982 -0.1405191 -0.1579445 -0.05813622 -0.0805022 -0.1027674 -0.04421661 -0.1465708 -0.08730622 -0.04113155 -0.1610933 -0.1594994 -0.213841 -0.08799693 -0.09964974 -0.06205837 -0.09147066 -0.04977604 -0.1201045 -0.105621 -0.07934149 -0.0814014 -0.0730434 -0.1137269 -0.1261321 -0.1001263 -0.1139052 -0.1403352 -0.1488332 -0.04091101 -0.06932425 -0.1053365 -0.09852769 -0.1207024 -0.1267686 -0.1145672 -0.1437888 -0.1547568 -0.0332658 -0.1118045 -0.09289531 -0.08653679 -0.08760165 -0.07084968 -0.09832188 -0.2997518 -0.09342815 -0.0418052 -0.1198401 -0.06196622 -0.05581341 -0.1063475 -0.1209455 -0.09022896 -0.09314208 -0.2767094 -0.09946483 -0.1593382 -0.1023725 -0.2150811 -0.1579823 -0.08641043 -0.1174062 -0.07153957 -0.1544867 -0.06799397 -0.06096849 -0.2380378 -0.09571116 -0.08096491 -0.1013359 -0.1635793 -0.1253184 -0.1152162 -0.06177491 -0.1173773 -0.08457587 -0.1282524 -0.07544344 -0.0608764 -0.09421782 -0.1293007 -0.08600651 -0.1224574 -0.1199013 -0.07389432 -0.08051628 -0.1136097 -0.1081114 -0.1214666 -0.1189732 -0.1123228 -0.1223993 -0.06928895 -0.09230593 -0.0620115 -0.08090802 -0.1028564 -0.05278353 -0.06845006 -0.07792272 -0.1516083 -0.1193452 -0.05405063 -0.1541682 -0.1736302 -0.1887045 -0.07696678 -0.07896423 -0.1069992 -0.1540979 -0.1199216 -0.1047984 -0.1197836 -0.1508099 -0.09166684 -0.07522422 -0.1314822 -0.08636005 -0.2019803 -0.09107563 -0.07934853 -0.06215329 -0.04291395 -0.06960996 -0.1184486 -0.04914594 -0.1113235 -0.07677134 -0.1214637 -0.09903894 -0.08615863 -0.05721804 -0.08458582 -0.1105124 -0.06091301 -0.06646701 -0.05945246 -0.08190507 -0.148503 -0.1031388 -0.1420089 -0.09882887 -0.1434132 -0.07481325 -0.06609938 -0.1232839 -0.0624171 -0.1586746 -0.1084244 -0.1300962 -0.1145634 -0.1468352 -0.2222023 -0.1344648 -0.1451675 -0.1240566 -0.07483282 -0.1182949 -0.1789207 -0.121471 -0.08526831 -0.127383 -0.1554118 -0.04536979 -0.05698387 -0.127095 -0.08376291 -0.1210716 -0.06671911 -0.09754939 -0.05395856 -0.1284664 -0.1303991 -0.1148299 -0.09221894 -0.09557519 -0.05609279 -0.1520308 -0.05546405 -0.06232576 -0.08595672 -0.1166616 -0.05158682 -0.1119434 -0.1562881 -0.1208175 -0.1436694 -0.1093859 -0.08220123 -0.1696239 -0.1554374 -0.0317549 -0.1121239 -0.07766838 -0.07106691 -0.06734322 -0.05952112 -0.2147379 -0.1381904 -0.3056483 -0.1520491 -0.115406 -0.1137834 -0.1220382 -0.1183659 -0.09755024 -0.1216141 -0.1196897 -0.08248504 -0.09311761 -0.07128199 -0.03896761 -0.1336748 -0.06217561 -0.2323162 -0.1173977 -0.05399455 -0.07135788 -0.1187322 -0.1043661 -0.1734728 -0.08093026 -0.1377339 -0.07833423 -0.1197019 -0.06284294 -0.07479025 -0.127786 -0.07992036 -0.1454744 -0.1347437 -0.04004918 -0.1151873 -0.02810107 -0.1363944 -0.04573477 -0.06906855 -0.09670912 -0.1081712 -0.06677948 -0.1260313 -0.07687419 -0.1023027 -0.1124864 -0.09344065 -0.1413535 -0.2649997 -0.06018196 -0.1444185 -0.1777067 -0.06586139 -0.02548785 -0.134136 -0.115898 -0.05495648 -0.1122671 -0.1399322 -0.095928 -0.1256547 -0.05141966 -0.09950853 -0.06935377 -0.09049889 -0.07890447 -0.05166646 -0.1324096 -0.08086899 -0.04723103 -0.1118714 -0.1266925 -0.06527326 -0.1131924 -0.05257159 -0.06355972 -0.07029846 -0.08654455 -0.1437783 -0.08499716 -0.08446635 -0.101444 -0.1059219 -0.1115238 -0.1247988 -0.1119468 -0.03331062 -0.05552709 -0.09488595 -0.1130398 -0.1211345 -0.08725507 -0.3468042 -0.3159721 -0.03976009 -0.1382238 -0.1282436 -0.1005801 -0.1556605 -0.0837837 -0.06999237 -0.08293276 -0.07552596 -0.1514573 -0.2937743 -0.0615425 -0.1532277 -0.08975873 -0.1037309 -0.1196221 -0.1315027 -0.08712842 -0.06477935 -0.1619391 -0.09109692 -0.1000188 -0.05504778 -0.1129554 -0.1379191 -0.07702575 -0.04822024 -0.03272918 -0.08179492 -0.1411233 -0.1316874 -0.1021789 -0.04523952 -0.107855 -0.09070411 -0.08261137 -0.09405536 -0.1375789 -0.1280706 -0.09315407 -0.1184072 -0.04025844 -0.06407159 -0.0757827 -0.1059402 -0.2326372 -0.09552021 -0.1372494 -0.09081565 -0.150785 -0.1159091 -0.08361256 -0.2059231 -0.1023999 -0.052443 -0.08320937 -0.1105253 -0.1418819 -0.1201397 -0.2038286 -0.1121397 -0.07204887 -0.07253052 -0.1249372 -0.07397389 -0.1548232 -0.07523796 -0.296331 -0.09875496 -0.08898143 -0.1067501 -0.08957458 -0.132495 -0.04203022 -0.11136 -0.1119746 -0.1300765 -0.08393522 -0.1062347 -0.08612847 -0.07630251 -0.1085483 -0.27 -0.131202 -0.1005518 -0.1061935 -0.05525098 -0.08828134 -0.07465716 -0.1957663 -0.1011562 -0.06883126 -0.0373482 -0.07772952 -0.2753263 -0.08566337 -0.1231284 -0.2604031 -0.1656146 -0.09084234 -0.105542 -0.1067886 -0.1066143 -0.09672066 -0.1725922 -0.1470443 -0.02743299 -0.1533565 -0.06876478 -0.06690576 -0.07077845 -0.1397399 -0.2874736 -0.09925489 -0.1509775 -0.06388258 -0.1101796 -0.09467106 -0.07482433 -0.1832779 -0.1386837 -0.1226757 -0.1612592 -0.0636347 -0.1012651 -0.0641185 -0.2702819 -0.1422243 -0.06349227 -0.131631 -0.1451702 -0.1149269 -0.05666266 -0.03385775 -0.09835439 -0.1394876 -0.09020293 -0.1050565 -0.1087335 -0.1418879 -0.1203183 -0.05628263 -0.06800243 -0.08080648 -0.05055256 -0.07462097 -0.03473362 -0.1549804 -0.1025746 -0.08363612 -0.08062923 -0.09533033 -0.1205188 -0.1041424 -0.1250673 -0.09936787 -0.2631739 -0.1505044 -0.08932278 -0.04639748 -0.1076649 -0.1255533 -0.05758054 -0.06526788 -0.09845706 -0.1295689 -0.15859 -0.1057692 -0.131552 -0.2826507 -0.1183714 -0.08935305 -0.1150198 -0.1255278 -0.110557 -0.1225246 -0.08259072 -0.1148792 -0.1554665 -0.1311511 -0.09582173 -0.1497825 -0.1101047 -0.09559333 -0.1022148 -0.2207678 -0.3036878 -0.1022238 -0.06164023 -0.113419 -0.08376452 -0.05663785 -0.08842501 -0.05745259 -0.1255085 -0.1627854 -0.09963112 -0.06851709 -0.2555166 -0.09860186 -0.02342222 -0.1383288 -0.09827998 -0.1155997 -0.05128326 -0.1237987 -0.07749156 -0.07081337 -0.07809112 -0.05096939 -0.09731217 -0.1060462 -0.07639714 -0.1272406 -0.1471668 -0.05173134 -0.1082145 -0.0549349 -0.1600101 -0.2453478 -0.02831329 -0.0807355 -0.1170507 -0.09679761 -0.0391488 -0.03820975 -0.1169473 -0.07852026 -0.2952554 -0.1008018 -0.06737617 -0.08199938 -0.1245337 -0.1675003 -0.08818498 -0.0766046 -0.0690937 -0.06954545 -0.1128189 -0.08808843 -0.140716 -0.09715331 -0.05669713 -0.0782633 -0.1008261 -0.1278008 -0.112915 -0.1544575 -0.09869433 -0.05366187 -0.1133691 -0.07890615 -0.07339706 -0.06413369 -0.06966253 -0.302573 -0.04272022 -0.09557243 -0.1827734 -0.1141536 -0.07673936 -0.1742493 -0.07993117 -0.0551764 -0.1313897 -0.1628495 -0.05845251 -0.04429576 -0.08097322 -0.1313617 -0.09781891 -0.06401654 -0.05703156 -0.04173936 -0.08241539 -0.1219079 -0.1058311 -0.1173845 -0.09996057 -0.08012501 -0.04870446 -0.05940223 -0.07609434 -0.1009504 -0.043206 -0.06195483 -0.1100036 -0.107688 -0.08231924 -0.1232366 -0.1298589 -0.06028285 -0.05839941 -0.1118135 -0.1210067 -0.03768506 -0.06223885 -0.0785291 -0.1553375 -0.07664558 -0.1131608 -0.07626997 -0.189479 -0.1759012 -0.1000837 -0.09894568 -0.1350977 -0.06056796 -0.1595724 -0.0822933 -0.09046919 -0.2726534 -0.1661085 -0.2967267 -0.08132318 -0.1312744 -0.123354 -0.07139086 -0.1052073 -0.1581863 -0.1075734 -0.09070024 -0.1275737 -0.1085304 -0.1615808 -0.2976934 -0.118811 -0.06295142 -0.1101444 -0.08626805 -0.04536518 -0.08476968 -0.1045562 -0.06003584 -0.1038724 -0.09413818 -0.1324834 -0.09877686 -0.05217254 -0.1184703 -0.1000685 -0.1757285 -0.2505491 -0.04191121 -0.06082974 -0.2113331 -0.1315209 -0.08118857 -0.1701627 -0.08327908 -0.06074802 -0.1334712 -0.0673611 -0.1260512 -0.1022193 -0.09959713 -0.1472603 -0.1415865 -0.1003388 -0.2401231 -0.07668255 -0.1159532 -0.08971223 -0.07465722 -0.1259423 -0.0749405 -0.06423465 -0.04649964 -0.09693026 -0.2677222 -0.2087704 -0.1152956 -0.06001029 -0.114929 -0.1547889 -0.1303382 -0.1261478 -0.2062627 -0.1240183 -0.04893224 -0.1651203 -0.1448217 -0.08067259 -0.1171749 -0.05551231 -0.05634524 -0.1023775 -0.1286592 -0.1049169 -0.1021678 -0.209105 -0.1464448 -0.1564407 -0.2701113 -0.07170986 -0.03621054 -0.1873004 -0.2109706 -0.1219028 -0.2779328 -0.06613913 -0.1134772 -0.06461478 -0.0718974 -0.1088299 -0.07460485 -0.131064 -0.1308929 -0.09906803 -0.07013712 -0.1194404 -0.0493129 -0.28541 -0.1089236 -0.1174326 -0.09806907 -0.1264019 -0.2490981 -0.3427103 -0.0916218 -0.07711962 -0.1029183 -0.09086945 -0.1180752 -0.07268332 -0.05539729 -0.06288829 -0.07531504 -0.08242677 -0.08316223 -0.1130207 -0.03828491 -0.1261901 -0.1371763 -0.2216263 -0.07077631 -0.1056791 -0.1614638 -0.1319293 -0.1237747 -0.1133996 -0.1859393 -0.1006892 -0.2721669 -0.1367472 -0.03586981 -0.1096005 -0.07117426 -0.2860047 -0.07270475 -0.106054 -0.0615737 -0.08966612 -0.1193102 -0.07882789 -0.1414675 -0.1281623 -0.07550988 -0.0529009 -0.0951684 -0.1127444 -0.06736305 -0.1060918 -0.1226173 -0.09551756 -0.14869 -0.1355589 -0.05206698 -0.3007753 -0.0714122 -0.1219167 -0.1838768 -0.161469 -0.02310946 -0.1926349 -0.2726454 -0.03089822 -0.06849925 -0.0536338 -0.3286566 -0.1396052 -0.06074278 -0.09555984 -0.06598516 -0.1085902 -0.1165605 -0.332051 -0.2898019 -0.06263358 -0.1113195 -0.1074183 -0.08711507 -0.1690094 -0.09329183 -0.1157559 -0.07377167 -0.1065107 -0.1269801 -0.1442868 -0.140778 -0.06058581 -0.07670987 -0.07292967 -0.09950303 -0.1555021 -0.1481486 -0.09897038 -0.1114724 -0.09211045 -0.05497339 -0.08173805 -0.1606259 -0.06567084 -0.07330316 -0.0651852 -0.1165741 -0.1475044 -0.1232296 -0.077249 -0.3028617 -0.1235906 -0.08292859 -0.09423549 -0.1107423 -0.08054592 -0.06934714 -0.09250921 -0.2095331 -0.06445785 -0.0869895 -0.07820475 -0.07309586 -0.1460884 -0.08909084 -0.148847 -0.04072217 -0.2414691 -0.1476019 -0.06768047 -0.1450872 -0.1166286 -0.07063244 -0.09349491 -0.09061103 -0.1400688 -0.04508706 -0.1815533 -0.07117449 -0.1195206 -0.1346458 -0.03971628 -0.08873129 -0.06656879 -0.04776831 -0.06968601 -0.08518381 -0.2555205 -0.159145 -0.2001821 -0.108335 -0.1101797 -0.1231663 -0.1124556 -0.2770071 -0.1797696 -0.1041832 -0.1040957 -0.1227023 -0.1095094 -0.06395333 -0.1194067 -0.1874296 -0.1319421 -0.1147262 -0.07417764 -0.1369065 -0.1325951 -0.04744885 -0.09512343 -0.1391518 -0.05583918 -0.05798359 -0.1509632 -0.1069027 -0.05707316 -0.1102235 -0.07521625 -0.3389292 -0.1123084 -0.1404546 -0.1554389 -0.0819774 -0.07484784 -0.1925862 -0.1068042 -0.1030095 -0.07298283 -0.08968205 -0.1020871 -0.07105526 ]
<!EndOfComponent> 
<Rescale> 1024 1024 
<LearnRateCoef> 0  [ 6.972333 5.396306 6.369502 8.138895 4.630519 5.220882 5.804046 6.604036 6.640741 7.984595 5.395822 2.347147 5.993259 6.86587 7.06534 3.801535 5.733976 6.129155 10.05464 3.929907 5.129666 4.231335 5.70827 8.70577 5.757171 4.948097 5.287437 5.130269 5.573428 4.842858 8.735743 3.485154 4.673428 6.261435 6.233979 7.472844 3.802308 5.421622 7.014286 5.492458 5.9993 6.595525 5.183204 4.68848 5.678299 5.767844 3.709973 3.181076 8.458451 6.075391 7.637309 8.315843 4.155599 6.826077 7.588228 4.534824 3.087911 4.025189 5.693256 5.794083 3.309897 5.574708 2.880106 7.331257 5.717685 3.270545 6.556952 5.049964 6.712646 5.247527 8.168196 4.902512 6.978552 5.650602 6.944942 5.480082 6.112329 6.324542 3.765616 6.23844 8.607465 2.324898 5.714999 4.63614 5.41602 4.757531 4.088079 5.061213 8.071097 4.770998 5.319763 7.639013 5.649112 5.192421 5.711823 4.184096 4.079318 6.75748 5.32106 3.695224 5.567491 5.76345 6.165315 3.926264 5.701391 6.589005 6.85449 6.408307 4.985112 6.810267 7.327842 3.965966 7.731975 7.119067 5.155896 7.464336 3.239319 6.445221 3.927908 6.144575 4.423791 6.764994 8.185034 6.519131 7.319773 6.55632 4.849532 5.485645 4.226426 3.944291 7.044069 6.695967 5.74265 5.493108 7.14289 5.101856 7.46999 7.382519 4.4762 6.13023 7.544743 4.118431 6.031528 3.314486 6.317866 7.72974 6.647202 5.880423 5.975637 5.676607 5.630679 5.112693 5.471452 7.427891 7.096571 5.671903 7.342121 7.196864 6.115188 4.209414 7.465016 5.615225 5.876802 5.67836 6.361075 4.951765 6.928287 6.177494 3.523816 8.058855 5.685698 8.571555 8.330976 7.605132 6.533701 6.063827 2.411713 5.709864 6.844892 6.165267 6.412173 6.665139 7.547269 5.843887 6.088135 7.285439 2.762578 7.798548 4.599834 6.029003 3.032566 5.332846 4.312549 7.571541 4.967545 4.539196 6.979525 6.165658 2.869184 7.732997 6.528126 7.371637 5.829123 6.781272 3.859012 7.364038 5.276966 6.38936 6.037828 8.045727 5.675933 6.994273 6.123028 4.518817 5.595581 6.84118 6.430251 4.681818 6.435384 5.739276 5.400188 3.922458 4.102805 5.545033 6.75014 6.045008 8.036487 7.128876 6.351446 7.532685 4.931019 7.282099 5.496593 6.847591 7.888366 5.464571 3.825268 4.763698 7.382564 4.608876 7.937561 4.459795 6.952252 6.765385 5.144574 5.284818 8.129203 7.038371 5.266374 6.921151 3.83395 4.639704 7.981996 5.280533 9.754708 6.833047 6.508233 6.682656 7.395447 7.182423 6.462228 4.319773 4.30372 6.189046 5.946077 4.839937 9.851645 8.256346 9.10083 7.422364 6.336873 6.018828 3.977153 4.264812 5.404399 7.203661 6.227113 4.459187 5.830873 4.523405 5.991823 5.755413 4.785007 5.601189 2.995036 5.731171 5.354565 5.908561 4.694871 5.004365 4.597535 4.249595 6.572746 6.784187 5.518062 6.115993 5.643209 6.526667 8.059569 6.236046 7.43755 5.802528 7.412189 4.960867 5.602349 6.791665 7.565608 6.305254 6.401995 3.935364 6.220902 7.633488 6.88342 6.180988 7.24143 6.594701 4.065735 6.948432 4.26328 4.654883 5.882782 4.423021 5.9825 8.613736 7.202271 6.556984 8.441674 6.47545 6.682366 3.739651 6.461306 2.722598 4.345403 5.790679 5.295785 6.73813 6.60501 4.499831 5.980117 6.23352 5.628617 4.425735 7.816968 7.595387 6.653702 5.981441 3.366858 6.792783 6.376698 6.194789 5.777291 5.025645 3.199904 6.762339 5.690495 6.053351 6.254419 8.492533 5.534773 5.286548 7.000273 5.35541 6.258723 8.077847 5.596476 9.294006 6.197716 6.492753 5.761613 4.354241 5.25433 5.395369 4.729438 7.410468 5.417032 6.834515 5.515024 3.792269 3.499529 6.890436 5.305225 3.755807 5.767181 8.885753 5.750312 5.946323 6.910086 7.5711 5.778432 7.454246 4.968172 6.48544 4.782781 5.422348 5.574549 5.332598 7.284462 5.695338 5.083598 7.073733 6.387454 5.850698 6.570789 5.561269 6.138313 8.724146 5.717357 4.630314 5.921279 6.430666 4.856494 4.503732 5.179179 5.984703 6.000116 6.697121 9.029379 9.952931 5.630176 5.185208 6.747366 8.002032 2.85001 2.808517 7.368049 6.331092 6.365396 6.821107 5.084242 6.959865 5.5473 5.973654 7.698519 4.198431 2.786304 5.966518 3.643799 4.177864 5.759122 5.638394 6.555793 8.304142 5.914903 3.892072 7.382399 7.322176 7.737173 5.756493 5.752932 8.519679 6.468122 8.210148 7.375603 4.874572 6.29858 7.006287 7.558574 7.394885 6.56333 7.006884 6.298105 6.130139 6.092457 6.840525 6.236547 8.36765 6.270482 8.647368 4.177459 3.06125 7.729341 4.549028 7.370124 5.317589 6.013735 4.727044 2.94387 5.783517 6.210237 8.296294 6.310568 5.008482 6.468641 3.005419 7.228691 6.757021 6.470078 5.04401 6.277498 5.619918 9.514155 2.723136 7.684369 6.29297 6.176712 6.261254 4.36046 7.30151 7.04717 6.876289 4.868388 5.433584 6.207966 8.126759 5.31218 8.055152 2.837914 5.293539 5.090432 6.21256 10.51543 6.98324 5.250258 4.404419 7.259051 6.902445 8.352349 6.540542 2.900044 5.803485 6.182879 3.022181 4.431991 5.37266 7.626441 5.280735 6.470783 7.759079 3.378882 4.272132 8.608287 5.210585 6.609444 6.95077 6.495337 4.981796 2.742894 6.269276 4.707623 6.95941 5.609846 9.42785 7.026057 3.05449 6.314896 5.718359 3.382513 7.188851 4.167373 5.035935 2.889315 5.276115 8.636779 6.497295 5.906264 5.743508 6.746797 8.69908 4.645351 6.064947 4.813692 5.676283 6.5866 6.179931 4.167705 5.915074 5.996465 4.416071 6.504007 8.579034 6.981628 4.790533 5.429527 5.814902 4.706481 5.733998 4.055498 5.688569 6.807447 7.048307 2.841546 4.274467 5.979845 7.237419 7.804636 6.895474 5.691834 6.706465 4.725693 6.107601 4.62144 5.420226 5.67973 2.996478 6.610109 6.817195 6.361936 6.325471 5.915592 5.883366 5.246333 5.389604 5.683768 4.019653 5.263413 5.617348 8.218172 5.215512 6.042632 3.22919 2.401425 4.677775 5.593804 4.500647 9.151297 8.306934 6.881453 5.960326 5.364775 5.251315 6.536983 7.946686 3.054174 6.320093 9.79922 3.837792 5.937441 7.160944 6.411915 5.820888 6.241685 5.947269 5.782131 5.876258 7.2476 5.136132 6.785304 6.447223 4.676548 6.550136 6.014684 5.97073 3.541766 3.140857 9.091697 6.501369 6.09474 6.586708 7.758296 6.824115 4.799356 6.534057 2.670329 6.197907 5.991582 5.909852 5.597815 5.485724 7.02634 4.943025 5.767884 7.946981 4.77014 6.241788 5.432553 4.302009 6.142477 6.045509 6.916943 4.873385 6.698145 3.886464 7.321529 6.293561 5.410597 6.747331 9.114663 5.233645 9.073014 2.807665 7.963663 7.019048 5.101679 5.944265 6.260855 5.118344 6.72778 5.464731 5.321465 5.551361 6.821282 6.541795 4.648026 5.963595 7.161133 5.795609 7.300878 6.712171 6.349524 5.504169 5.566535 6.969175 7.832129 8.06822 6.694429 6.169168 6.438954 5.459861 6.842044 6.95877 5.128949 5.21627 7.951198 6.888967 6.062332 5.409969 8.665342 5.994176 5.5795 8.380971 6.38274 6.589265 5.674048 7.552691 5.88109 4.51521 4.173617 3.211363 6.326584 4.279748 5.222383 5.763419 3.773993 7.528849 6.381492 2.84773 4.320286 2.661386 5.715117 6.481085 5.901399 5.646743 6.655098 4.517209 6.664166 5.456333 5.326807 5.347358 3.857991 3.060324 6.204472 7.42408 6.573243 5.547488 7.61755 7.36053 4.782606 7.86762 6.45311 5.413466 5.592874 6.910882 7.985959 4.661296 5.125132 4.011975 3.067423 10.42355 5.750659 2.94344 5.269271 6.31557 4.927449 7.874029 7.219912 6.102174 8.717801 3.800414 6.672113 8.42195 4.813733 3.695452 4.325374 2.961141 6.470017 6.135609 6.287632 6.764388 6.907025 7.651258 8.414568 8.824461 5.679148 2.91249 3.000866 7.328242 6.109975 6.985015 5.31232 4.762338 5.383895 3.014369 4.97462 7.148168 3.52487 3.417429 4.888782 6.801838 6.050425 9.521849 6.973979 5.045405 5.597415 6.690679 3.14754 4.263804 5.8072 2.821994 6.629121 8.315817 5.121747 3.18223 6.520511 3.031774 8.607667 6.497746 6.347119 7.203828 7.125334 7.390086 4.674056 5.689828 4.812953 7.2638 5.908199 6.668617 2.757625 7.4606 6.919684 6.319259 6.447728 3.149214 2.250686 5.249774 5.487054 5.444901 5.493575 6.499137 5.749704 5.580665 7.401827 6.160178 4.373041 8.484915 6.6689 7.70957 6.682528 5.708457 3.076284 8.349336 8.704035 3.717157 3.833354 6.330149 5.85882 3.993905 4.256607 2.868535 4.556558 7.778301 7.266729 4.882063 2.799937 7.525299 8.80785 5.944138 5.96589 6.53109 7.437624 5.100376 5.551466 7.698221 6.277907 7.568617 4.578988 5.876783 6.020439 7.147901 5.114192 5.719444 5.859122 6.489082 2.74311 5.75199 6.941457 4.038557 3.976686 8.950084 3.072463 2.693575 7.954112 5.535459 6.40484 2.796418 6.594748 10.70372 7.801117 8.278371 7.062148 6.567562 2.739538 2.8576 5.402499 5.412823 6.229724 5.149149 3.593685 7.095783 6.860581 5.380363 7.698704 5.225257 5.432181 6.020889 5.643929 6.413445 5.34492 6.356581 4.883722 3.762487 7.87992 7.561232 6.602823 6.273241 4.694984 4.272871 6.738893 6.115376 5.520774 5.871463 5.210218 5.765683 4.862284 2.432636 6.889427 6.246259 7.102976 7.186788 5.03786 5.74634 7.968913 3.38184 6.768999 6.653309 4.549758 7.445631 3.912611 7.36678 4.855875 7.008759 3.157951 5.467643 8.613749 6.160462 6.762753 7.798594 6.981014 7.834022 5.907507 7.963328 3.312877 5.147878 6.004472 5.169513 8.511761 7.4101 5.654765 7.217392 6.942677 8.93519 3.26816 5.201782 3.623256 7.002666 6.183879 4.829452 6.00915 2.845021 4.235829 6.153403 5.575698 5.209908 5.962265 7.757206 5.592831 4.092686 6.237944 6.705857 5.569269 4.803956 6.155273 7.639425 7.830367 5.591943 7.069335 6.610013 5.123878 8.101278 5.335641 4.642149 5.613431 2.320931 6.588349 5.24796 3.973358 6.540909 5.061909 4.317908 6.282644 5.655284 8.117347 8.950633 5.462627 4.741591 ]
<!EndOfComponent> 
</Nnet> 
