<Nnet> 
<AddShift> 1024 1024 
<LearnRateCoef> 0  [ -0.111413 -0.1202362 -0.1293857 -0.1064561 -0.1258102 -0.1154194 -0.1122505 -0.1204387 -0.1387948 -0.1009729 -0.1642057 -0.09049774 -0.1314969 -0.1193051 -0.1521373 -0.1411936 -0.133377 -0.1212714 -0.1364977 -0.142455 -0.1191202 -0.1236872 -0.1265245 -0.124353 -0.2216581 -0.100394 -0.1383942 -0.1126466 -0.1443229 -0.2363956 -0.09799125 -0.1475459 -0.1223171 -0.1529283 -0.08836972 -0.1857922 -0.1286674 -0.1285436 -0.03995203 -0.1043576 -0.1062364 -0.07993826 -0.1138728 -0.1098391 -0.1402467 -0.2036788 -0.09388536 -0.09981772 -0.1077733 -0.1238773 -0.3191634 -0.1309963 -0.09820838 -0.1051452 -0.08113401 -0.1172945 -0.1471956 -0.1275739 -0.1042639 -0.1802757 -0.120425 -0.1173921 -0.04823968 -0.1257124 -0.1240529 -0.2088603 -0.1200034 -0.1204996 -0.1140492 -0.1354168 -0.09877187 -0.1058755 -0.1222545 -0.1038377 -0.1040974 -0.0707812 -0.1249282 -0.07216109 -0.1449787 -0.09783906 -0.1276411 -0.1572329 -0.1131345 -0.1000282 -0.343971 -0.128676 -0.08640198 -0.1362273 -0.1236543 -0.1534512 -0.1257222 -0.1248715 -0.1047779 -0.104987 -0.07783271 -0.1115533 -0.175927 -0.1465727 -0.1421975 -0.1461653 -0.07309095 -0.1126065 -0.09367287 -0.1247975 -0.1393349 -0.07551496 -0.08224903 -0.09198579 -0.1243939 -0.1554936 -0.07603145 -0.1526058 -0.1246091 -0.1311199 -0.09419832 -0.1060728 -0.104066 -0.09708466 -0.09174721 -0.1190927 -0.0915899 -0.1242039 -0.1458095 -0.1790658 -0.1951581 -0.08750331 -0.09139699 -0.1144544 -0.1479931 -0.1358007 -0.1390808 -0.07407723 -0.1438536 -0.1154152 -0.06981952 -0.05757654 -0.1356263 -0.1255825 -0.0907793 -0.09755611 -0.1590645 -0.1008311 -0.08514245 -0.2041131 -0.07496436 -0.1262832 -0.1230303 -0.180447 -0.121423 -0.0819804 -0.1006199 -0.1368756 -0.1052668 -0.09341123 -0.1055784 -0.1334715 -0.09835149 -0.1265372 -0.1117933 -0.0900071 -0.1821625 -0.1910802 -0.1202971 -0.09093043 -0.1138247 -0.08823828 -0.122434 -0.09907173 -0.1134251 -0.1046361 -0.06997378 -0.1392299 -0.1101048 -0.1425161 -0.09744725 -0.1324421 -0.07855294 -0.1177693 -0.1188871 -0.12687 -0.1098817 -0.08193264 -0.1369811 -0.07673065 -0.1410087 -0.1245505 -0.1067605 -0.09490792 -0.1722379 -0.100899 -0.06582148 -0.09424593 -0.1041555 -0.09788868 -0.087212 -0.08636424 -0.03987569 -0.09717262 -0.1022733 -0.1147707 -0.09384667 -0.1003547 -0.116487 -0.1087086 -0.1017004 -0.1475115 -0.1317622 -0.1505999 -0.1012668 -0.1815227 -0.129441 -0.3937289 -0.06774706 -0.09843586 -0.07885645 -0.05609644 -0.1817499 -0.1765106 -0.06998879 -0.1095843 -0.1590034 -0.08666482 -0.0519364 -0.1193764 -0.08165849 -0.1496666 -0.1296991 -0.1309696 -0.1812486 -0.09322464 -0.1292589 -0.1132873 -0.1321385 -0.08205859 -0.3410966 -0.1147124 -0.1192091 -0.09031571 -0.1123328 -0.1277572 -0.1065247 -0.1462434 -0.2217139 -0.08515061 -0.1028888 -0.1464067 -0.1091999 -0.08711576 -0.1204895 -0.1118081 -0.1070677 -0.2089249 -0.1109322 -0.1080497 -0.1039289 -0.1605356 -0.1440182 -0.1782411 -0.1103028 -0.1212528 -0.1078641 -0.1501877 -0.2186023 -0.1794509 -0.1523869 -0.05912404 -0.1248882 -0.1066428 -0.1226342 -0.1101872 -0.1148052 -0.1108425 -0.1231511 -0.1231959 -0.08779436 -0.06704692 -0.0711272 -0.09205693 -0.136361 -0.06175182 -0.07817174 -0.08947042 -0.08984003 -0.08030823 -0.1239266 -0.07281861 -0.1058016 -0.1293746 -0.1226873 -0.1274161 -0.1439455 -0.07218318 -0.2458048 -0.1180077 -0.1263917 -0.0788314 -0.09611371 -0.07112058 -0.1014675 -0.09779977 -0.1537334 -0.09957752 -0.1219499 -0.1656075 -0.1198588 -0.1093292 -0.06713826 -0.1452595 -0.1253853 -0.1346633 -0.0942938 -0.1189322 -0.1066912 -0.07393271 -0.1491939 -0.09000471 -0.09933726 -0.113105 -0.09760732 -0.1391575 -0.1230956 -0.06396075 -0.1895013 -0.1287325 -0.1033539 -0.1401571 -0.118888 -0.09641195 -0.1362346 -0.1206718 -0.09329176 -0.09011312 -0.1757697 -0.1317941 -0.04697681 -0.09787817 -0.1636301 -0.1552038 -0.08382647 -0.08696802 -0.08525524 -0.07998697 -0.1287345 -0.1041279 -0.1145682 -0.07435147 -0.1663946 -0.05941238 -0.08710615 -0.1288578 -0.09040226 -0.07481216 -0.08796545 -0.08252081 -0.1263443 -0.1174783 -0.07912217 -0.1040001 -0.08467715 -0.1001399 -0.1088992 -0.07106829 -0.1027016 -0.08572462 -0.193535 -0.1250449 -0.118218 -0.09835061 -0.1311874 -0.1050417 -0.1407911 -0.08594202 -0.1131891 -0.08326727 -0.09515166 -0.0678404 -0.1088415 -0.171696 -0.1712111 -0.1050986 -0.08038019 -0.1090202 -0.1429234 -0.07272372 -0.1281271 -0.09246642 -0.09547087 -0.139446 -0.09800893 -0.06607087 -0.1173378 -0.1555899 -0.1157707 -0.1314667 -0.2849806 -0.1275444 -0.08878519 -0.06165058 -0.1882949 -0.1167322 -0.1274975 -0.1008041 -0.2033458 -0.08286514 -0.114887 -0.120264 -0.123253 -0.07439891 -0.0974232 -0.09557123 -0.1078873 -0.08899754 -0.09850877 -0.1207497 -0.1087699 -0.07871264 -0.1222754 -0.2000659 -0.1131356 -0.1234875 -0.08021811 -0.1609709 -0.106297 -0.09160718 -0.1038472 -0.1139774 -0.1133199 -0.09701839 -0.1354519 -0.09505606 -0.1412351 -0.1158924 -0.1066437 -0.06564023 -0.07526591 -0.07790951 -0.123921 -0.1507547 -0.1000263 -0.1439179 -0.1005081 -0.06990647 -0.1135031 -0.1851856 -0.05295194 -0.1266676 -0.0995035 -0.2037342 -0.1010978 -0.1078702 -0.143314 -0.1345728 -0.1702609 -0.1275528 -0.1269113 -0.08398231 -0.1144816 -0.09270939 -0.1453646 -0.09121224 -0.09185989 -0.1225595 -0.07782979 -0.09615726 -0.1265943 -0.1030161 -0.08992096 -0.1236752 -0.1314758 -0.09924811 -0.09172612 -0.1358377 -0.1401854 -0.07307451 -0.1447693 -0.1504258 -0.09866666 -0.1232475 -0.1732982 -0.1002178 -0.1019308 -0.1147207 -0.156282 -0.132931 -0.1102799 -0.1451288 -0.1653996 -0.09764922 -0.2279338 -0.1363396 -0.1166305 -0.07445519 -0.09253579 -0.1373718 -0.1179312 -0.1531285 -0.07760146 -0.1017687 -0.09659214 -0.1088676 -0.1560636 -0.09509154 -0.1259002 -0.07156311 -0.1608831 -0.102741 -0.1334291 -0.1195284 -0.1377406 -0.0991229 -0.1156311 -0.1421558 -0.07245845 -0.1503292 -0.1119919 -0.0754394 -0.1575568 -0.09095383 -0.2059051 -0.1348089 -0.1373913 -0.06782401 -0.1144511 -0.1919556 -0.09170001 -0.0992831 -0.08688797 -0.1133678 -0.1234322 -0.0980754 -0.1693503 -0.1138498 -0.1002833 -0.09474365 -0.15269 -0.1174446 -0.343718 -0.1173546 -0.1252399 -0.1191889 -0.2154328 -0.102777 -0.1087744 -0.0905555 -0.1092895 -0.1517819 -0.1724589 -0.1000824 -0.1836279 -0.135748 -0.1484822 -0.1144617 -0.1205125 -0.1010292 -0.1219348 -0.1027272 -0.1270631 -0.1157788 -0.1118033 -0.09383767 -0.1081657 -0.1391272 -0.1241068 -0.09774204 -0.1010866 -0.1081417 -0.1173158 -0.1137019 -0.1172603 -0.08968772 -0.1185756 -0.06920825 -0.1182117 -0.1069646 -0.132757 -0.128869 -0.1209845 -0.08711804 -0.1299298 -0.1197041 -0.2111782 -0.1814351 -0.08921756 -0.1303378 -0.0801241 -0.1954793 -0.1373625 -0.09661623 -0.07281124 -0.1092812 -0.08390597 -0.3174024 -0.1360334 -0.1530596 -0.1317299 -0.1051737 -0.1230331 -0.09876192 -0.1074695 -0.1266281 -0.1586899 -0.09825622 -0.1482771 -0.1414551 -0.09392526 -0.09188497 -0.1112685 -0.09916686 -0.09774662 -0.1389877 -0.04333477 -0.2065355 -0.1248767 -0.1177617 -0.1454824 -0.1551021 -0.1321508 -0.1374235 -0.08982775 -0.2060712 -0.09602017 -0.1070872 -0.1194198 -0.09721481 -0.105793 -0.1356155 -0.1533337 -0.1201066 -0.1355878 -0.1644393 -0.07385872 -0.1335775 -0.09339757 -0.1130716 -0.1021611 -0.1218731 -0.1476388 -0.1036401 -0.279507 -0.100157 -0.09275997 -0.1056319 -0.1190663 -0.119374 -0.1358907 -0.1002261 -0.1095041 -0.1627682 -0.1117977 -0.1121833 -0.1258481 -0.1303099 -0.06976918 -0.06751551 -0.1074855 -0.10503 -0.08912372 -0.1423526 -0.07073689 -0.1162158 -0.09096947 -0.1054846 -0.131255 -0.1543765 -0.1320693 -0.1179591 -0.08479116 -0.1263119 -0.09503143 -0.0931657 -0.1440347 -0.1160715 -0.1082812 -0.1949784 -0.1860878 -0.1296472 -0.1085608 -0.09174155 -0.09823602 -0.07342174 -0.2478357 -0.08386024 -0.07940935 -0.09055385 -0.1331915 -0.07244737 -0.1920539 -0.1049007 -0.08660569 -0.1476971 -0.1106324 -0.2372596 -0.09847737 -0.5999252 -0.08562115 -0.0932835 -0.08923725 -0.1863441 -0.06811649 -0.1249317 -0.09288995 -0.09336923 -0.1170621 -0.0949538 -0.1038769 -0.09671863 -0.1603029 -0.2384737 -0.1558225 -0.09039579 -0.1169386 -0.1189035 -0.1253505 -0.150465 -0.2181035 -0.1229895 -0.1125463 -0.08415455 -0.1479848 -0.108427 -0.1167424 -0.08877547 -0.1177652 -0.1483479 -0.1268128 -0.1335363 -0.09514634 -0.1128902 -0.1043456 -0.08357371 -0.07763588 -0.132269 -0.08894818 -0.128164 -0.09024221 -0.2377597 -0.1027981 -0.1152417 -0.05637391 -0.1502029 -0.1109837 -0.1007792 -0.2929837 -0.1166012 -0.1058921 -0.08806032 -0.1036979 -0.1067635 -0.1145975 -0.1342575 -0.09645153 -0.1259609 -0.1026323 -0.1230331 -0.1005366 -0.0666371 -0.09992358 -0.07851546 -0.1693971 -0.1078036 -0.1067052 -0.06359553 -0.1200033 -0.1270278 -0.1027226 -0.1256125 -0.1039909 -0.104371 -0.105311 -0.2939708 -0.1382501 -0.1454509 -0.09812523 -0.1288891 -0.1405949 -0.1465671 -0.1306298 -0.07475332 -0.1114353 -0.1356567 -0.07691608 -0.1149684 -0.2337046 -0.1550844 -0.1120583 -0.1084496 -0.1493285 -0.1048034 -0.0999201 -0.1327573 -0.1416214 -0.2351836 -0.07370479 -0.1276318 -0.2331122 -0.1159216 -0.1178699 -0.1105079 -0.09059522 -0.0865187 -0.1296227 -0.1238516 -0.08944037 -0.08091143 -0.1581315 -0.08649244 -0.1302744 -0.1226779 -0.1440294 -0.09400406 -0.06740597 -0.1083287 -0.06930562 -0.08319434 -0.1083945 -0.120666 -0.1599564 -0.1415893 -0.1268045 -0.08068425 -0.1452801 -0.09982611 -0.04275241 -0.1266461 -0.1369727 -0.1444758 -0.07572013 -0.1474736 -0.08459949 -0.1198488 -0.07938845 -0.1360539 -0.1295196 -0.1156364 -0.1249639 -0.1734077 -0.1235341 -0.08014447 -0.09891041 -0.1367055 -0.1383355 -0.1096808 -0.08777475 -0.1568155 -0.1197708 -0.09696107 -0.1197751 -0.1091835 -0.1149706 -0.08950892 -0.14844 -0.1105845 -0.1787997 -0.1113747 -0.1113007 -0.09702272 -0.1108868 -0.09985008 -0.1800071 -0.127207 -0.06525937 -0.1060989 -0.101507 -0.1178005 -0.1157036 -0.1114979 -0.1273718 -0.07619272 -0.08289921 -0.1062798 -0.1541862 -0.336834 -0.1131593 -0.1083282 -0.1394453 -0.1016191 -0.1493904 -0.1211867 -0.08325769 -0.1255115 -0.110375 -0.1083638 -0.1044169 -0.1378796 -0.100616 -0.1343575 -0.09067466 -0.1375152 -0.113248 -0.08837511 -0.1060663 -0.06569352 -0.1354384 -0.05020665 -0.06258691 -0.08211853 -0.1065113 -0.1189877 -0.136564 -0.1281899 -0.08266781 -0.08922724 -0.1566093 -0.2158012 -0.1332686 -0.08809799 -0.1604538 -0.09956606 -0.1246494 -0.1622699 -0.1891079 -0.1182473 -0.1063942 -0.1347603 -0.07590338 -0.1594975 -0.1274613 -0.09687182 -0.06986684 -0.06212942 -0.09145504 -0.1048101 -0.1093053 -0.1535368 -0.1051525 -0.1520862 -0.09718847 -0.1008849 -0.1659484 -0.1469458 -0.1568207 -0.1275983 -0.09241935 -0.1331942 -0.2377893 -0.1111308 -0.1390727 -0.1343056 -0.1085193 -0.1211706 -0.1198573 -0.1099132 -0.1063486 -0.09952478 -0.110427 -0.1908827 -0.1355629 -0.05613953 -0.205425 -0.1101926 -0.120367 -0.2604051 -0.1086074 -0.1088166 -0.1134886 -0.0621235 -0.1186999 -0.1232072 -0.1116202 -0.1190792 -0.3785133 -0.06236494 -0.1971741 -0.1262696 -0.1269577 -0.1480217 -0.08377887 -0.1056515 -0.1250847 -0.1503038 -0.08229808 -0.1164521 -0.1517806 -0.09947974 -0.0985679 -0.1160846 -0.1579971 -0.08207321 -0.1043395 -0.07162641 -0.09289194 -0.06174219 -0.2408375 -0.1250822 -0.09587223 -0.1215502 -0.1112803 -0.08513446 -0.146184 -0.1048715 -0.1261021 -0.1292298 -0.1028334 -0.1427504 -0.100981 -0.1732024 -0.1184896 -0.06910256 -0.1135626 -0.1245462 -0.1284069 -0.1275471 -0.1299032 -0.07984967 -0.1739031 -0.1246955 -0.09306683 -0.1929176 -0.1080382 -0.1977068 -0.1219019 -0.1107079 -0.08070637 -0.1217208 -0.1676971 -0.1047748 -0.2685205 -0.1103812 -0.1249336 -0.09105059 -0.1446743 -0.08737125 -0.1224646 -0.1241751 ]
<!EndOfComponent> 
<Rescale> 1024 1024 
<LearnRateCoef> 0  [ 6.354012 5.672167 5.59462 5.900056 5.191769 8.025503 6.390145 6.066109 5.558003 6.238313 3.511222 6.765357 5.255492 6.095544 4.327253 5.515276 4.913753 5.182627 4.825224 3.568953 5.13522 6.688654 4.430207 5.343937 3.013238 4.91088 8.143374 5.049396 4.366664 3.748388 6.9842 5.064402 5.136226 5.549636 5.678324 4.696683 5.102152 6.813496 10.8663 8.208512 7.8197 7.157769 6.090914 6.497461 5.64972 3.306545 6.913766 6.638265 7.947736 6.88787 3.063311 5.451914 5.631995 7.262066 7.650558 4.437879 4.678633 5.072422 5.4948 4.860305 5.463622 6.435449 8.274829 5.541626 6.413647 3.44968 6.744458 6.656617 5.84353 5.572895 7.163411 6.367017 4.770453 6.754668 7.126738 8.364864 5.68821 8.878325 3.589347 6.704122 5.684433 4.784301 6.849995 6.270906 2.252663 5.589431 5.202581 6.416761 4.227352 4.964174 5.893524 6.105624 5.785472 5.325325 6.796205 4.324961 3.237882 4.650813 5.549417 5.089669 9.477784 6.551947 4.932652 5.920981 5.32541 6.46524 7.221022 9.557339 5.667016 4.624073 7.86958 5.661224 8.199892 5.595576 4.49352 7.181009 5.311429 5.981324 6.592871 7.374754 7.655334 6.445065 4.947301 4.02925 3.442945 8.93938 5.71687 3.859927 4.917571 5.04547 5.163381 6.518156 6.561768 7.762026 6.721533 6.687229 6.818017 6.408896 8.628126 7.093189 4.148385 4.265886 5.825826 3.046832 7.849109 7.11162 6.075739 4.030332 6.821194 9.23658 6.825815 4.189548 5.535765 5.931438 5.830733 5.670474 6.844043 6.832248 6.841734 6.733768 4.475589 3.137995 6.233097 7.6078 6.190238 8.513442 5.842831 6.458852 8.030905 7.613238 7.253048 5.364877 6.165893 4.139812 8.737353 4.632137 5.659351 5.012125 6.423979 5.819863 6.054585 5.946304 7.358296 7.762587 5.997519 5.856978 4.321885 6.925785 3.410066 8.161654 5.019171 5.103432 5.430861 7.050001 6.20045 6.254882 11.81248 8.220047 6.298787 6.095771 7.522166 7.668139 6.555603 8.297729 3.955226 5.268048 5.937268 4.681678 5.781051 3.292747 4.526825 2.272947 9.034981 4.94174 7.705895 8.959891 5.193003 3.400021 8.706923 8.135575 5.308321 4.781135 6.41214 5.659149 7.567016 3.379983 3.849336 5.178078 3.369518 5.107061 4.023587 6.554706 5.999938 7.183971 2.286714 4.877788 5.664867 9.021585 5.580807 5.783898 6.766111 5.348664 3.441687 8.878385 8.153728 4.426932 6.364933 4.766649 7.52712 5.946709 5.052896 3.072085 5.719177 5.699262 5.248726 3.711804 5.062715 3.094248 5.054385 5.60763 5.975584 4.998905 3.053375 4.143384 4.348912 7.277298 7.548907 6.494384 7.05143 5.171609 5.616191 6.102375 6.089951 6.176295 7.799088 7.930622 5.891817 8.271556 4.117024 8.166349 5.535703 8.847227 7.307161 7.55386 6.132954 8.157133 5.526901 4.580404 5.299792 6.138204 5.050043 7.253708 2.818946 6.681712 5.73441 8.82724 6.243233 5.446776 5.059441 6.876966 4.125603 7.136208 6.545916 3.162414 5.623221 6.52992 9.988423 4.8473 6.31816 5.980647 5.421047 5.324564 7.08071 7.932791 5.346788 4.63331 6.311937 5.925561 6.958206 4.882734 5.033622 5.080159 4.652582 6.505034 6.385771 5.618493 4.676716 5.795851 6.920817 6.140448 9.029072 5.350333 5.072175 4.247581 8.511003 7.393975 4.235383 4.344385 7.168825 8.878935 7.808005 7.732429 5.365799 4.85964 6.391494 6.161131 3.261986 6.792904 8.243184 6.580805 8.795475 7.363341 7.0722 6.729348 4.723114 5.68863 7.269996 5.459696 5.894013 5.710821 4.849032 5.998484 8.859261 8.399495 3.389956 4.798747 8.050158 7.418392 4.780284 6.240228 5.435708 6.113989 5.085041 5.992593 6.743045 6.518916 5.51307 3.538202 3.56247 3.96241 7.784039 6.137992 6.67155 6.66066 5.872874 5.786878 4.150002 5.496811 5.455228 8.923648 6.212301 4.632358 6.091822 5.284235 2.889426 6.882332 5.700107 6.974469 3.112397 6.419833 6.89287 7.006059 3.6855 7.546871 5.568552 5.486808 5.742014 7.538643 8.125673 4.005501 4.992845 4.775664 5.662946 5.682771 5.315166 9.103538 5.817266 3.205935 6.673963 6.613121 4.854494 5.02909 4.93357 4.798492 5.504168 6.405778 5.465922 4.841333 6.738414 6.217184 5.153551 6.682168 5.451546 8.811543 8.77663 6.543377 7.827855 4.63876 4.840733 3.564285 8.788662 6.2344 6.467236 3.709793 10.73765 6.12342 6.072222 3.135669 7.538435 4.952574 5.273178 4.531133 5.367684 6.614075 5.667076 8.461973 4.294434 6.954697 3.855195 7.738163 6.642311 6.720182 6.669563 7.418756 6.644813 6.276959 8.077135 4.823556 5.792282 5.070677 7.39387 5.354177 5.573291 8.594976 5.41973 5.596249 6.421683 5.627567 3.932932 7.844881 5.221621 7.720367 4.698612 5.659688 9.080586 3.469135 4.9325 7.952213 3.36345 3.64147 6.841909 6.165703 6.353664 4.69799 8.012486 5.259637 7.85814 8.001506 5.615061 8.548308 3.44278 7.097833 6.161811 7.050809 3.927808 6.295839 4.434277 7.316901 4.408404 5.114745 5.614495 5.845123 7.474302 5.875972 6.293664 7.353709 4.293181 5.629129 3.662577 5.898854 5.70571 5.94641 5.18626 3.022414 7.242545 4.903608 5.786846 5.95532 7.053131 7.545905 5.29423 6.384615 6.855673 6.914292 4.877187 5.322504 2.380895 4.262065 6.258779 5.726773 4.040986 6.19456 5.738975 5.039303 6.247177 4.592444 4.29647 5.032581 3.610836 6.312894 3.512739 7.515234 6.292401 8.951728 4.064594 7.055925 6.564763 7.103134 5.38971 6.359715 4.338071 5.547462 4.280907 7.930846 5.368255 5.241962 4.552634 7.462698 4.73903 8.324306 5.546745 6.591414 5.446788 4.917482 4.422235 5.838842 6.8203 6.841886 5.802116 6.41032 3.439618 3.257427 6.812194 5.055364 8.426608 3.274813 6.07826 6.345031 6.291939 5.90033 9.626871 3.119238 5.782805 4.806589 5.832793 6.785673 4.992939 5.672349 8.9395 6.491282 5.173761 7.865772 4.988316 3.721006 7.606049 8.31773 6.883694 5.544784 5.467811 5.854387 11.43613 3.34607 5.372985 5.870389 5.469533 4.719728 5.045442 6.285811 6.475546 3.570107 5.582552 5.932032 5.665636 8.072415 7.653859 5.42637 4.393028 5.970376 4.254855 5.017032 8.818046 5.240836 7.00327 5.096954 5.80537 5.078927 6.017684 5.907746 3.014414 8.646066 6.75686 3.994711 5.641042 6.192459 4.622717 4.238888 9.477276 4.189368 4.631553 5.858216 4.215147 7.336052 7.674592 8.639528 5.801566 6.395177 5.102881 6.712773 8.907569 5.763125 6.602376 5.913135 6.538543 4.395487 4.268975 6.565553 7.841649 7.481777 7.769953 6.708006 5.093568 4.914329 5.088484 3.486183 3.714203 3.585193 6.851782 5.305542 7.661925 7.226212 2.990157 8.206698 8.15079 7.523942 4.96872 9.015162 4.09596 5.024869 7.359776 4.89441 6.083094 3.020902 8.090365 2.335688 8.19805 7.699281 6.150468 4.45967 10.81868 6.025844 8.039509 9.284653 7.278065 8.178925 4.536637 5.604639 5.314156 2.86001 4.627133 7.399632 6.031328 4.764817 6.216923 4.700048 4.1727 5.563631 8.132165 5.492819 5.169367 4.988711 4.91248 8.13307 6.070787 5.127165 6.506793 5.097967 6.023919 4.996467 3.695206 9.548221 7.551166 5.168376 8.006184 4.906084 6.495829 2.749386 5.226362 6.36887 10.06027 5.298383 5.246538 5.561394 3.020715 5.852169 4.308148 7.707214 4.77727 6.416131 5.504246 5.489641 5.562777 5.414255 5.691637 6.728451 6.543756 9.259363 5.46752 7.005401 4.785172 8.421552 7.774143 8.960324 4.026579 5.556365 6.227402 5.887131 5.609415 5.692017 4.36985 2.752669 4.166411 5.238755 6.476038 6.602212 6.151466 4.420331 4.549446 8.070167 6.737267 6.67951 7.93472 6.952819 3.126799 4.26563 6.985003 5.226842 4.182672 6.949849 6.252103 6.413474 6.384737 3.696584 6.295915 5.393168 2.774173 6.11163 5.579962 5.705937 5.686393 9.859047 5.150711 7.582551 7.937292 8.186248 4.798299 6.257386 6.247791 5.186485 4.630347 6.072154 8.661818 6.069963 4.892043 9.404431 6.745258 6.372016 3.897187 4.716006 5.642864 7.93219 6.050006 7.528679 8.121105 6.251067 5.497225 5.272211 6.674386 5.181344 9.618279 6.263622 9.171958 5.670518 7.156268 5.889746 5.639739 3.896664 4.122684 5.550621 5.797006 7.015506 5.451078 6.887699 5.739078 4.41116 4.409077 7.787556 4.671978 7.801347 4.153449 6.559854 4.866615 7.328515 3.692357 5.241944 7.026395 4.818141 6.721648 7.154564 5.010929 6.271856 7.658053 6.466652 6.254704 6.718213 5.249344 5.59326 4.804315 6.287619 7.249593 4.643172 5.924249 2.46686 6.745511 5.880301 5.495295 6.304832 3.573689 8.054668 8.225198 6.345965 7.122361 7.733306 5.163081 5.316548 6.680508 4.400503 8.42698 5.416231 4.772811 7.073366 7.366843 10.00075 5.258789 6.983126 7.310245 8.75802 6.268023 4.779477 3.576093 4.160302 7.441909 7.495859 4.996777 2.975667 6.413047 8.301593 5.357759 5.126873 5.600916 4.04836 3.484612 5.444543 4.285092 4.878815 5.63946 3.830492 5.016854 6.599393 10.50953 8.611792 6.690334 6.775974 5.962941 5.718276 6.564903 4.510344 5.971216 4.938137 4.032936 4.486547 4.020006 6.298888 5.312815 4.747705 3.322662 6.208623 5.485849 6.456343 7.163336 5.657475 6.276946 6.578538 4.554018 6.308961 7.493399 3.343688 5.724995 7.691684 4.328856 4.838748 7.814135 2.855262 7.185491 6.434782 6.370846 6.502385 7.134665 5.442802 5.65336 4.114786 2.221282 9.691396 3.578905 6.775741 5.970063 5.194943 7.74114 6.416322 6.070853 5.331338 9.970697 5.135382 5.262043 7.793803 6.045594 4.847477 3.4156 5.975916 5.915199 9.182508 6.083316 5.626289 3.100261 5.993446 7.852859 4.518888 6.422285 5.322349 4.40159 6.013744 6.262887 4.990159 4.818342 6.088969 7.905277 3.716045 5.796458 9.767803 6.039452 4.039176 4.646471 5.943611 7.644531 8.832837 4.869478 5.80385 7.966658 4.407943 7.441775 4.711917 3.78687 5.413079 9.786462 5.981281 4.07585 6.380312 2.690557 6.365318 5.147325 8.277828 6.490233 8.0769 6.669694 5.290582 ]
<!EndOfComponent> 
</Nnet> 
