<Nnet> 
<AddShift> 1024 1024 
<LearnRateCoef> 0  [ -0.1090935 -0.07704511 -0.07313524 -0.09375098 -0.08004433 -0.109511 -0.08240878 -0.08854091 -0.07958794 -0.06868017 -0.08182129 -0.01429185 -0.1387664 -0.06018935 -0.01604179 -0.1274939 -0.08286463 -0.0443705 -0.08522557 -0.02331032 -0.1218765 -0.112604 -0.09608214 -0.08301239 -0.1002391 -0.06793047 -0.01545335 -0.05594699 -0.05175536 -0.07030489 -0.1533205 -0.1396734 -0.1222256 -0.01551789 -0.08297468 -0.138861 -0.07827836 -0.107908 -0.0150769 -0.08755185 -0.05242114 -0.1654616 -0.05186734 -0.03527639 -0.06671599 -0.07772594 -0.1086682 -0.06176836 -0.01654557 -0.1390999 -0.09297673 -0.1208503 -0.095874 -0.08132452 -0.1263674 -0.07062127 -0.22781 -0.08532226 -0.07995325 -0.07585327 -0.09837656 -0.01531755 -0.3163498 -0.06450749 -0.06505553 -0.09625216 -0.1082387 -0.08202258 -0.07019611 -0.0799021 -0.1260245 -0.1120972 -0.09862587 -0.01467169 -0.0870731 -0.08997094 -0.08425143 -0.148727 -0.0677442 -0.05467771 -0.2009035 -0.2181474 -0.08797419 -0.05268637 -0.07762134 -0.08541682 -0.1353037 -0.05865924 -0.04992749 -0.06609139 -0.06306019 -0.101839 -0.1069576 -0.08350509 -0.07060768 -0.1262559 -0.09851541 -0.2067683 -0.06618017 -0.09557692 -0.07349867 -0.1075978 -0.06178696 -0.1201225 -0.1673661 -0.05806295 -0.07499429 -0.05179105 -0.01562585 -0.03920835 -0.0637381 -0.0815565 -0.09384962 -0.2054473 -0.07503579 -0.104146 -0.1713109 -0.09924704 -0.0651121 -0.07836107 -0.2038255 -0.07920658 -0.2097553 -0.0685114 -0.06873018 -0.08964492 -0.05838674 -0.08762257 -0.1140669 -0.158121 -0.05433501 -0.1002841 -0.01486699 -0.1667631 -0.07134545 -0.08955463 -0.09920653 -0.09970649 -0.01558399 -0.09170336 -0.06109519 -0.0784566 -0.09299008 -0.07514622 -0.0807483 -0.01514254 -0.08432703 -0.06441225 -0.04983016 -0.235973 -0.06428564 -0.08330198 -0.06012406 -0.0420932 -0.1527424 -0.1435634 -0.1051828 -0.1053674 -0.1574032 -0.06175205 -0.07336075 -0.07537913 -0.09172337 -0.03408703 -0.04276859 -0.107776 -0.01539428 -0.08445015 -0.1455014 -0.01670246 -0.03503181 -0.09222516 -0.06969911 -0.06828021 -0.1063991 -0.07375477 -0.1221466 -0.09073002 -0.08615346 -0.07879575 -0.09451104 -0.05594863 -0.1458793 -0.1220156 -0.09562342 -0.06473614 -0.1745263 -0.156265 -0.07019611 -0.1062442 -0.07543675 -0.07183717 -0.03790289 -0.08200665 -0.2831893 -0.09626531 -0.08278815 -0.07948215 -0.06188451 -0.08531953 -0.1132509 -0.01642734 -0.07947006 -0.1069218 -0.08058904 -0.06778567 -0.07774512 -0.100342 -0.04621557 -0.2876099 -0.07101586 -0.05576514 -0.1169287 -0.1709502 -0.116875 -0.07872475 -0.2831151 -0.09129032 -0.09878708 -0.05565563 -0.07530077 -0.06119054 -0.04199794 -0.1041163 -0.1593042 -0.1661325 -0.09306616 -0.1487859 -0.06520335 -0.06874845 -0.09213614 -0.2827318 -0.1088098 -0.08353866 -0.1093859 -0.1164478 -0.08199991 -0.1360283 -0.1190466 -0.06137494 -0.1151396 -0.06261612 -0.1515716 -0.05078908 -0.01576916 -0.2617961 -0.1017497 -0.08845992 -0.01571349 -0.07454947 -0.07696903 -0.05015317 -0.07380296 -0.06814761 -0.03719819 -0.1244462 -0.08286066 -0.1145802 -0.2309428 -0.1418181 -0.1191913 -0.1017926 -0.08011974 -0.1885868 -0.06639706 -0.1250536 -0.09449565 -0.08703569 -0.1484122 -0.04078975 -0.04682977 -0.07517225 -0.1557508 -0.103981 -0.01519011 -0.0682667 -0.08024008 -0.01526554 -0.06552651 -0.0662664 -0.1260876 -0.03702784 -0.0809653 -0.1305054 -0.08795531 -0.1226562 -0.0153452 -0.08469777 -0.09164564 -0.09919608 -0.07841301 -0.05286407 -0.09161475 -0.077362 -0.09031487 -0.09463472 -0.08041621 -0.1030183 -0.08112288 -0.01628737 -0.1003912 -0.05489501 -0.1217865 -0.3262583 -0.1119158 -0.07558218 -0.131611 -0.1123791 -0.1392073 -0.05962171 -0.3414712 -0.05146163 -0.1393238 -0.1246854 -0.1173741 -0.0918624 -0.01512427 -0.1395931 -0.1224945 -0.2167712 -0.1127518 -0.09908364 -0.0985494 -0.1429534 -0.08716834 -0.08726867 -0.1761186 -0.04683472 -0.1462927 -0.06953352 -0.06651324 -0.08726829 -0.1014053 -0.05809247 -0.2496126 -0.07448395 -0.05352156 -0.04629132 -0.1047981 -0.06743714 -0.09393576 -0.1168271 -0.03677517 -0.1416553 -0.115447 -0.0909723 -0.263436 -0.07077119 -0.06677257 -0.1128043 -0.01507116 -0.09575077 -0.06750126 -0.3008459 -0.06876839 -0.1645663 -0.1224712 -0.09583537 -0.2746006 -0.05453499 -0.01539241 -0.06934974 -0.04527523 -0.06987549 -0.06801471 -0.06901132 -0.1248266 -0.01530727 -0.05217733 -0.2811779 -0.08505125 -0.0673769 -0.01529645 -0.1018845 -0.09131067 -0.1180444 -0.1110172 -0.08509212 -0.2150168 -0.1283273 -0.01492974 -0.06563675 -0.1193635 -0.1750806 -0.0604729 -0.1366608 -0.1500718 -0.01572856 -0.07221465 -0.06044878 -0.08482795 -0.1114076 -0.07171936 -0.0906766 -0.1283183 -0.09105333 -0.0486436 -0.1209365 -0.01486846 -0.291571 -0.06053318 -0.01527048 -0.1621489 -0.09863664 -0.1244454 -0.04023559 -0.07037261 -0.09263141 -0.01593365 -0.2956235 -0.0478211 -0.09072237 -0.09755965 -0.09130784 -0.09804 -0.08082105 -0.07945277 -0.08088835 -0.1104671 -0.04600134 -0.07100675 -0.05178073 -0.0781584 -0.3432121 -0.1162331 -0.08191065 -0.03682941 -0.1486784 -0.01538188 -0.1144213 -0.1188157 -0.09545958 -0.1337586 -0.01544119 -0.09293781 -0.2918965 -0.01550118 -0.3049949 -0.04048603 -0.3010663 -0.0850578 -0.1339489 -0.1191084 -0.05357757 -0.1013676 -0.1217627 -0.04620186 -0.2029902 -0.1391554 -0.06040928 -0.1072678 -0.06231382 -0.2787872 -0.06387673 -0.01562401 -0.1019938 -0.05643449 -0.1294479 -0.04240837 -0.01503068 -0.08375894 -0.1208797 -0.1171724 -0.1085545 -0.07405193 -0.1507888 -0.1071113 -0.06131154 -0.05844929 -0.158459 -0.08506298 -0.1088438 -0.07498851 -0.01481739 -0.0499507 -0.05469312 -0.2804962 -0.1266511 -0.1063275 -0.1110477 -0.06144152 -0.05838084 -0.02795252 -0.1864246 -0.1149193 -0.07433587 -0.1645625 -0.07203243 -0.06878069 -0.01498761 -0.04899325 -0.2022135 -0.04867632 -0.09321827 -0.08634457 -0.08506815 -0.1797734 -0.07494867 -0.110543 -0.09123065 -0.1155635 -0.06965587 -0.1017736 -0.1050213 -0.07812691 -0.09854657 -0.03690524 -0.08204518 -0.08416597 -0.1254404 -0.1534826 -0.03091322 -0.08588818 -0.1274899 -0.09831652 -0.1452491 -0.1120377 -0.09455924 -0.1074623 -0.07128624 -0.01523867 -0.07648715 -0.08546645 -0.1473742 -0.1187171 -0.1072897 -0.08609029 -0.08496407 -0.07546736 -0.01529675 -0.1114525 -0.06280383 -0.0822956 -0.05702819 -0.1355253 -0.09955945 -0.09096193 -0.2939731 -0.09245492 -0.01481024 -0.1387526 -0.08001062 -0.1056874 -0.1863817 -0.06775675 -0.09325759 -0.2509488 -0.05348727 -0.08070444 -0.05519246 -0.05506502 -0.09205753 -0.09170552 -0.08867398 -0.1055837 -0.08777091 -0.09009022 -0.0719114 -0.3339157 -0.01600274 -0.09421232 -0.1092144 -0.09731761 -0.01662665 -0.1607767 -0.1025849 -0.1176632 -0.06967501 -0.01632762 -0.04807754 -0.1097578 -0.01574747 -0.1424477 -0.09393908 -0.1632114 -0.08158271 -0.1128816 -0.0829112 -0.01544695 -0.05627554 -0.07887403 -0.2203145 -0.09275261 -0.07414751 -0.04882394 -0.09039668 -0.1266398 -0.1026272 -0.1966752 -0.02356457 -0.09996687 -0.179783 -0.153287 -0.1223772 -0.06299655 -0.02970192 -0.1128596 -0.1214193 -0.07555582 -0.06986015 -0.0830386 -0.09602419 -0.08727052 -0.07666161 -0.1024078 -0.1137615 -0.1387994 -0.09480264 -0.08597296 -0.03840173 -0.1099165 -0.1653306 -0.1012555 -0.07874939 -0.1486512 -0.06206434 -0.1043937 -0.2991035 -0.09785876 -0.07840694 -0.1035325 -0.2587625 -0.3002954 -0.08169726 -0.1070588 -0.07230983 -0.07011162 -0.1178147 -0.04902032 -0.08609746 -0.06999981 -0.06003386 -0.08162301 -0.04496005 -0.04689429 -0.06925506 -0.06331781 -0.1450484 -0.06410292 -0.0639691 -0.06035106 -0.06169399 -0.07968317 -0.07327056 -0.05363906 -0.06367736 -0.01915892 -0.07867177 -0.04416603 -0.09219202 -0.1209478 -0.0716102 -0.1752038 -0.1946126 -0.08072098 -0.0676768 -0.1887216 -0.1397435 -0.1005664 -0.2529539 -0.08929432 -0.1184919 -0.09861565 -0.06879465 -0.08501823 -0.06864837 -0.08774107 -0.1058623 -0.06423014 -0.1042198 -0.1375273 -0.06804602 -0.101965 -0.1933957 -0.1130716 -0.04839318 -0.03320464 -0.1094557 -0.1693204 -0.06332114 -0.09166937 -0.08462019 -0.01508784 -0.06838675 -0.04415109 -0.05712357 -0.08649378 -0.0597561 -0.1251124 -0.1021077 -0.0814212 -0.08531419 -0.1554044 -0.1213911 -0.1107011 -0.2028398 -0.07742538 -0.07813247 -0.07698231 -0.09493467 -0.05227919 -0.08762265 -0.09613085 -0.07970805 -0.1104649 -0.09875482 -0.1071196 -0.06355276 -0.1137783 -0.06432682 -0.05689619 -0.0897145 -0.104542 -0.0153499 -0.01510174 -0.100147 -0.09959567 -0.08183093 -0.09595377 -0.1793901 -0.1333567 -0.06522967 -0.0866046 -0.1320186 -0.02466697 -0.09154812 -0.1610678 -0.1133316 -0.06414348 -0.1121699 -0.1019201 -0.05133894 -0.04803883 -0.1829519 -0.1262183 -0.08017843 -0.09803504 -0.0716316 -0.3151214 -0.1095783 -0.117654 -0.09633957 -0.0159292 -0.05626397 -0.08406509 -0.1199861 -0.01523112 -0.1654824 -0.06666391 -0.0790516 -0.06460831 -0.1170694 -0.05940961 -0.09874144 -0.06433429 -0.07884137 -0.05510281 -0.07856458 -0.01520432 -0.03240555 -0.09168995 -0.1273789 -0.09976353 -0.06163555 -0.07136145 -0.124407 -0.06377792 -0.1133177 -0.06598532 -0.02813455 -0.07612319 -0.1266012 -0.01447324 -0.01482072 -0.06419784 -0.04517314 -0.08563589 -0.1007708 -0.07875793 -0.09897897 -0.1112555 -0.09081192 -0.2621745 -0.08547299 -0.1095818 -0.1079196 -0.07277147 -0.1214885 -0.1714454 -0.1212051 -0.2258844 -0.06932193 -0.1537198 -0.04817906 -0.0531278 -0.09822966 -0.07482667 -0.03745008 -0.0577934 -0.07067735 -0.1187052 -0.06064383 -0.09365692 -0.1386353 -0.07571227 -0.06564277 -0.06767122 -0.09128976 -0.05900589 -0.07569242 -0.04573248 -0.1222202 -0.139927 -0.1130264 -0.2404702 -0.01442306 -0.1500627 -0.09296361 -0.1125805 -0.09215744 -0.01595362 -0.05024147 -0.02898867 -0.05083254 -0.04554815 -0.05209275 -0.08895744 -0.1712714 -0.05825594 -0.1183991 -0.05265063 -0.1108423 -0.07588161 -0.08223662 -0.08600349 -0.09012514 -0.09077188 -0.1003253 -0.1208125 -0.1230552 -0.09588765 -0.0634814 -0.07811714 -0.07355881 -0.04926879 -0.06719387 -0.1348191 -0.07316826 -0.05202689 -0.0161794 -0.08612431 -0.1222946 -0.08970568 -0.1399677 -0.01571395 -0.01650553 -0.06543741 -0.01507321 -0.08372441 -0.1077717 -0.117034 -0.110269 -0.1045865 -0.1011992 -0.07748763 -0.1219602 -0.05708871 -0.07750228 -0.1212996 -0.05920338 -0.09895029 -0.1725044 -0.07353859 -0.04912539 -0.06424198 -0.09308823 -0.08429787 -0.11967 -0.108278 -0.01491936 -0.01508701 -0.03483674 -0.06690197 -0.1634339 -0.1169332 -0.1168578 -0.1049555 -0.09301677 -0.08655974 -0.07180143 -0.0156233 -0.09848114 -0.1488897 -0.07955078 -0.02875881 -0.01565248 -0.05968583 -0.1034319 -0.1743144 -0.2512488 -0.105371 -0.2152026 -0.08136153 -0.2693347 -0.01452048 -0.1463841 -0.07472569 -0.1015138 -0.01535295 -0.070002 -0.05372928 -0.1242084 -0.2278552 -0.1008766 -0.05509721 -0.06988519 -0.112604 -0.08059882 -0.1500571 -0.05571856 -0.06466071 -0.09445968 -0.06381582 -0.1096983 -0.05757871 -0.09498536 -0.099062 -0.1279256 -0.06074376 -0.09748442 -0.1063221 -0.05109345 -0.1170252 -0.05368989 -0.0841523 -0.1551395 -0.0812944 -0.04547694 -0.1993568 -0.051674 -0.06550309 -0.1666841 -0.1893922 -0.0585092 -0.06483417 -0.07716401 -0.01536714 -0.07991676 -0.1155444 -0.09002975 -0.07887129 -0.09744313 -0.108175 -0.2134799 -0.03825566 -0.1207465 -0.111912 -0.100012 -0.0158119 -0.2374865 -0.1042572 -0.06919288 -0.0860739 -0.2374743 -0.0941754 -0.131253 -0.1126562 -0.09585503 -0.06313387 -0.09950471 -0.1341441 -0.0146441 -0.1230602 -0.07617112 -0.1230485 -0.01601612 -0.1343196 -0.06413543 -0.0964686 -0.1553772 -0.1378126 -0.01632504 -0.3420542 -0.07096883 -0.09828481 -0.08484799 -0.1061716 -0.2355573 -0.1036507 -0.1069831 -0.01528413 -0.1136273 -0.03635937 -0.08713633 -0.07253858 -0.1635462 -0.06266604 -0.1452385 -0.2418333 -0.09181426 -0.06685895 -0.09158695 -0.05770427 -0.09352016 -0.0968858 -0.07671251 -0.07573176 -0.09458856 -0.08344891 -0.04210089 -0.2582667 -0.05227596 -0.04582706 -0.01476303 -0.0151779 -0.05816345 -0.2817717 -0.1718896 -0.0673212 -0.01548606 -0.07228632 -0.0832037 -0.08702358 -0.1918774 ]
<!EndOfComponent> 
<Rescale> 1024 1024 
<LearnRateCoef> 0  [ 8.145563 9.966429 7.370627 8.080361 8.763765 6.165111 7.301293 8.047262 7.16704 9.899821 6.378883 2349.191 6.170743 7.040974 1686.569 6.039724 7.312854 7.1724 5.536373 8.467269 3.896166 7.681808 6.365184 6.555305 5.575844 5.32203 1878.243 6.349842 9.672315 5.709287 3.931578 4.478711 7.823038 1855.809 5.554103 4.82675 6.096218 7.322506 2015.923 4.378365 6.475363 3.640398 10.01123 8.326521 6.258047 4.989784 4.083872 5.703492 1542.528 5.418384 5.695898 4.922369 6.315498 4.304819 6.872566 5.650553 2.983271 9.111462 4.40742 9.136423 5.601433 1926.443 2.306838 7.900676 6.109717 4.187743 5.211074 8.635187 9.669216 6.351784 5.626437 5.765011 7.619207 2179.676 6.694611 8.551185 8.190929 4.738391 7.546052 5.761154 2.904634 2.904469 6.098832 8.041432 8.55521 5.461689 5.040071 6.686018 8.035749 6.619843 6.896798 6.991559 6.2026 4.830224 8.050077 4.965176 5.332858 3.044302 8.549855 8.180214 7.641323 6.484159 6.880217 3.744678 3.703692 9.53299 8.653186 7.45374 1819.26 7.54324 5.463857 10.05792 6.860809 2.950053 6.826585 6.333123 3.278526 7.352252 5.914683 6.353704 2.924476 5.836031 4.082847 6.807998 4.83666 6.656433 8.430467 7.635145 6.127632 4.535735 10.89066 8.207947 2098.682 4.308155 9.596147 7.583964 7.552001 6.156608 1833.389 7.0336 8.110467 4.458662 7.9379 4.894041 6.909515 1991.07 4.684676 8.168687 6.515397 3.147236 5.665553 5.74395 5.821618 8.575067 4.269638 5.434301 6.412458 7.429195 4.500042 7.85806 6.381774 7.2569 4.697084 8.637545 7.513499 7.762169 1899.079 5.484754 5.692091 1500.917 9.215503 6.57011 6.844006 6.739326 6.319401 6.826701 6.387468 5.859732 6.351558 7.373379 6.062292 6.854853 3.801548 5.075924 4.907718 5.881981 3.930302 4.384863 5.49679 7.294176 4.594471 7.523643 7.879519 6.187871 2.71672 6.001741 5.316711 6.566297 5.878297 5.324776 6.717799 1574.844 8.545005 6.761211 6.19605 6.903792 5.400992 7.739145 7.713533 2.77228 5.480764 6.243587 7.31537 3.01105 7.26209 8.907077 2.768596 4.322516 5.122199 6.389994 8.085693 5.509243 7.050686 7.134641 3.837283 4.27969 4.92988 3.566295 5.545197 4.812026 6.203609 2.789546 7.49194 11.11915 3.702333 5.175381 9.17716 3.6512 5.625073 5.663742 6.219429 9.160227 5.728096 11.39804 1771.995 3.015584 7.65873 6.374071 1790.228 5.090053 6.63654 6.404982 6.706777 6.778623 8.39719 5.669024 5.577134 5.179513 3.61736 5.547695 6.321374 6.489793 6.431658 3.570821 8.120201 5.5768 5.921197 8.278798 5.446912 7.706807 8.470776 8.134408 3.659879 7.141389 1973.279 7.192918 4.576683 1945.199 7.100676 7.722907 5.971328 6.583408 5.369343 6.814333 6.942276 6.340418 1916.474 4.595843 7.803908 6.58197 6.37599 10.76058 6.480439 4.680031 8.099251 4.345187 4.715445 4.242639 5.402041 1614.326 6.205409 6.965105 7.031772 2.744752 5.81919 5.625623 6.702339 3.819414 3.740415 7.411457 2.86965 7.854661 5.921292 7.358962 6.785171 6.696335 1997.888 3.673348 6.56468 3.208872 7.267316 4.272989 6.679477 4.84963 8.447036 8.131494 4.051668 5.970339 5.358451 8.954037 6.976896 4.117526 5.413083 6.858917 2.894516 9.700829 6.30198 9.289977 6.597705 10.71478 5.58353 5.030827 7.981516 3.873707 4.04209 5.776993 2.803398 5.2963 5.881745 4.722526 2018.122 7.364028 9.260359 2.731629 7.228011 3.768413 5.967085 4.178975 2.721553 7.049308 1899.745 7.194951 7.406479 8.465453 8.464071 7.559987 5.327875 1930.124 5.984322 2.686413 5.454867 6.64708 1934.041 6.789248 5.876302 6.448752 5.945317 5.209309 3.313841 6.474093 2073.476 8.549061 6.664719 4.931785 6.326999 4.855411 4.017179 1785.12 8.823043 6.133079 7.30801 5.902102 7.416041 5.550042 6.049026 6.209458 7.133779 6.713563 2098.041 2.763239 6.438436 1943.585 3.298497 4.261806 5.954179 10.91993 6.814106 4.687509 1719.898 2.379693 6.343249 4.949526 3.89436 5.169901 8.674177 5.965407 5.871071 6.394096 4.744693 6.468577 7.516195 6.230584 4.929618 2.275619 6.440687 7.812476 9.02393 4.021816 1903.354 7.172827 4.677274 7.206521 3.772227 1882.495 8.111781 2.648191 1861.648 2.373695 7.975947 2.376777 4.770992 7.048309 6.385035 5.711977 4.168993 6.952015 6.424524 3.323392 5.439188 6.919693 4.915045 8.412521 2.598736 5.379544 1819.782 6.754615 7.732899 5.366454 7.327437 2033.867 6.525342 6.481568 5.679322 6.504952 6.236081 5.407534 5.304388 6.913703 5.725826 4.187942 9.335011 4.737897 8.287923 2119.028 7.146766 5.37551 2.708496 5.821362 4.610927 7.294813 7.384366 5.991857 9.47738 3.117805 4.993697 8.354498 3.612622 7.075304 5.871655 2050.551 7.149755 3.109869 7.421911 7.032788 6.592761 6.448848 3.943782 6.150687 6.446292 7.868438 6.279108 5.660351 5.72476 6.053938 5.17908 7.572724 7.503374 5.734003 6.971317 5.939476 4.206004 8.648146 6.07876 4.758903 7.167875 5.472884 6.435033 6.976406 5.363837 6.418593 1955.119 4.892863 4.539073 3.520958 6.588894 5.59256 7.195671 9.063359 4.840165 1933.871 6.081373 5.525406 5.25019 5.285141 4.372203 7.686443 4.485762 2.594276 6.312426 2121.683 4.785291 5.90415 6.71549 2.981607 6.296199 8.088933 2.991437 6.019586 7.187808 7.370545 5.661931 6.513236 7.51485 7.879409 6.313467 7.615952 8.719857 7.135417 2.283419 1698.587 6.583561 6.413426 8.310511 1520.801 4.252889 4.863166 5.063042 7.593997 1602.873 8.905147 6.0969 1779.023 4.501015 6.430395 3.980354 6.450676 3.836711 4.299089 1880.408 6.447568 6.460419 2.933227 8.303874 5.810662 7.689167 6.042909 4.760962 6.7858 2.893551 9.276832 4.358553 3.388075 5.194454 5.15324 8.40518 9.49891 6.02776 6.690717 8.912909 5.890804 8.558425 6.789786 8.152045 8.326921 6.486815 7.610643 7.311991 8.133328 7.241083 8.448713 4.091572 3.506582 5.358059 6.048077 4.200136 6.403682 5.642855 2.6628 7.607491 5.271741 5.66043 2.780848 2.646372 7.675654 5.210614 6.994372 7.608488 5.917041 8.867079 5.431276 6.958333 9.330265 6.475305 7.686848 6.817213 7.393872 5.539113 5.09833 5.434278 8.084464 5.720207 5.737066 5.495891 7.879941 6.314618 8.164203 1004.417 5.130602 7.01339 5.830902 4.631341 4.959567 3.09611 3.615956 7.450967 5.493737 4.113497 6.605117 6.124815 3.506788 5.354623 6.394658 6.36438 5.976042 6.480432 5.603528 4.710436 6.341908 5.892705 6.484097 5.243031 5.444078 5.818182 4.693075 5.625292 6.723444 8.210545 4.091893 4.458295 5.828624 4.434439 9.57286 2011.668 8.401786 7.472187 8.196665 5.523371 7.712277 4.944525 7.548703 6.963873 5.663153 3.976806 3.999192 7.539952 2.86957 7.132307 7.239245 8.111424 5.444973 6.369957 4.225796 5.556817 7.669681 5.880208 6.21314 7.145768 5.483263 7.934261 8.300966 5.294559 8.416287 6.129235 1914.742 2006.295 5.858183 7.626228 6.703222 9.632673 4.503698 5.140979 8.953512 7.736849 6.327424 8.770521 4.32484 3.979401 4.525444 5.265108 5.517711 7.3839 6.50344 6.851835 3.520288 5.450347 7.134286 4.466587 5.195936 2.78433 6.578889 4.461891 7.160365 1721.188 6.301805 4.214844 6.643757 1957.914 4.037682 5.707339 5.958502 6.376904 5.588197 5.859507 4.844697 7.925333 6.520152 10.50132 6.164652 1967.668 9.959537 6.518213 5.939981 6.702605 9.454821 6.387341 6.375642 5.444691 5.828837 5.248827 7.434935 4.721773 5.916382 2266.28 2117.394 5.132666 7.354955 6.882169 7.116609 6.639933 7.254279 6.948542 7.49171 2.782224 5.840655 6.619099 6.432217 7.192902 4.284386 3.627515 7.832017 3.305194 5.322052 4.482448 9.881763 6.26132 7.30827 8.506594 8.570018 6.331627 7.001674 5.821068 5.331057 5.583837 3.982447 6.917405 4.920061 8.113869 7.685104 6.408116 7.021706 6.619064 5.848084 4.867214 7.015653 2.76338 2288.845 5.020948 7.315483 6.5262 5.669282 1713.618 8.193602 9.176185 7.367718 10.34498 9.55018 6.442328 4.061285 9.287228 3.781917 7.352577 6.412869 7.601607 4.485378 4.469531 4.52259 4.403684 4.995869 5.183644 6.86261 7.725045 9.264528 6.931925 6.416759 5.99418 6.268897 5.560374 8.799951 6.401973 1645.594 8.416611 5.301779 7.665084 3.373372 1790.006 1553.335 8.419159 2017.368 5.501225 5.27873 6.987019 4.558687 5.862221 5.661775 6.189523 6.266526 6.186627 8.504067 5.599175 6.410679 8.531964 3.620602 6.545251 7.118731 5.783261 6.174344 5.046391 7.344553 4.309249 2077.555 2012.272 8.408628 8.882506 3.70804 7.13363 6.986987 7.83805 7.977598 5.487393 8.613118 1820.052 7.483388 6.779345 5.841868 8.864981 1810.326 6.493196 5.588608 4.332556 2.789599 6.681707 3.138905 4.334652 3.176734 2245.248 4.006938 6.703091 6.909758 1913.774 6.070859 6.353717 5.351111 3.69693 6.929695 8.752142 7.484453 4.412124 6.499849 4.502047 8.987852 7.414607 7.161482 5.034573 6.711094 5.458477 6.236403 6.165677 4.910451 8.247339 5.396413 7.018208 6.240159 6.536215 7.321265 5.970721 3.515968 7.229446 6.504498 2.856195 6.943397 6.031396 5.602318 3.062619 6.414544 5.521956 7.266481 1908.471 9.172886 7.080237 4.436935 6.55367 6.230554 4.543199 3.092831 6.884111 4.894545 4.435551 6.698581 1758.263 2.797019 4.104959 6.117664 5.838568 3.486591 7.503845 3.847782 5.337053 7.258203 7.256394 6.971083 6.288185 2191.303 6.772269 5.30451 6.809151 1694.594 4.870625 5.557686 4.178752 5.616002 3.761919 1603.46 2.217378 9.343718 8.109597 5.000871 6.563804 3.141765 5.444962 6.66962 1938.624 6.009972 11.33492 4.879973 6.573792 4.178166 10.66424 5.109854 2.991838 7.376849 8.431569 8.244737 7.008361 6.823409 6.620745 4.681559 8.39728 7.803402 6.981534 9.470687 2.973469 6.874854 6.900645 2141.338 1977.833 6.111936 2.585051 4.573428 7.960208 1866.825 6.536337 8.91651 5.366959 3.755266 ]
<!EndOfComponent> 
</Nnet> 
