<Nnet> 
<Splice> 440 40 
[ -5 -4 -3 -2 -1 0 1 2 3 4 5 ]
<!EndOfComponent> 
<AddShift> 440 440 
<LearnRateCoef> 0  [ -0.05830944 0.00151964 -0.01476726 -0.002987304 0.1755013 -0.006994141 -0.00867503 -0.0003905631 -0.05556417 -0.02407531 0.01344503 -0.02187134 -0.002548229 -0.006201357 -0.01584802 -0.01083887 -0.008787824 0.005077585 -0.009559038 0.03365992 0.005213622 -0.1145671 0.001201128 -0.01906176 8.966702e-05 -0.08524127 0.0007161871 -0.001728965 0.03823417 -0.02032512 0.003512537 -0.0008202879 -0.02013019 -0.005668791 -0.04803777 0.01189718 0.001952024 0.002131352 -0.006011363 0.006173389 -0.05478089 0.00124996 -0.01436246 -0.002961378 0.1729535 -0.006700947 -0.008835827 -0.001039407 -0.05555072 -0.02593577 0.01359787 -0.02154141 -0.002440183 -0.005087939 -0.01535229 -0.01009289 -0.008597963 0.00503553 -0.00908448 0.03402285 0.005278931 -0.1147897 0.001346223 -0.01895664 -1.806921e-06 -0.08437915 0.0006301989 -0.001636437 0.03863271 -0.01996431 0.004272459 -0.0008116899 -0.01981119 -0.005687055 -0.0471033 0.01184961 0.001254854 0.002104875 -0.005863898 0.006172376 -0.05165754 0.0008019322 -0.01399024 -0.002953876 0.1707675 -0.006354254 -0.009021229 -0.001750745 -0.05549488 -0.02762367 0.01377209 -0.02123256 -0.00234278 -0.004115099 -0.01485404 -0.00932237 -0.008461753 0.004974141 -0.00869564 0.03433584 0.005354663 -0.114962 0.001477338 -0.01885897 -0.0001017779 -0.08371667 0.0005339583 -0.001558189 0.03909273 -0.01965422 0.004858854 -0.0007761216 -0.01957286 -0.005659855 -0.04627049 0.01184805 0.000613738 0.002066429 -0.005672883 0.006226817 -0.0488465 0.0002052449 -0.01364035 -0.002972875 0.168848 -0.005945074 -0.009185496 -0.002499966 -0.05504339 -0.02915878 0.01399014 -0.0208413 -0.002188713 -0.003297329 -0.01435069 -0.008607271 -0.008276184 0.004888125 -0.008343359 0.03464107 0.005423701 -0.1151327 0.001668377 -0.0189503 -0.0001738728 -0.08322502 0.0004169027 -0.001362934 0.03962733 -0.01927333 0.005323647 -0.0006789599 -0.01932311 -0.005582468 -0.04555951 0.0119287 3.996172e-06 0.002040617 -0.005528293 0.006332035 -0.04625569 -0.0005213203 -0.01331488 -0.003046635 0.1672175 -0.005489665 -0.00937144 -0.003287564 -0.05442279 -0.03054738 0.01419198 -0.02038622 -0.002015379 -0.002612524 -0.01383726 -0.008054062 -0.008070622 0.004881151 -0.007898504 0.03491271 0.005498023 -0.115315 0.001942591 -0.01882029 -0.0002773895 -0.08292851 0.0003168202 -0.001156592 0.04021549 -0.01885932 0.005730012 -0.0005406693 -0.01917928 -0.005461884 -0.04495142 0.01194558 -0.0005824378 0.001974364 -0.005406588 0.00641612 -0.04380741 -0.001369293 -0.01301927 -0.003262699 0.1658573 -0.004997696 -0.009503521 -0.004091803 -0.05375091 -0.03183213 0.01434363 -0.01994126 -0.001833329 -0.002048935 -0.01331168 -0.007657329 -0.007833203 0.004955267 -0.007498645 0.0351545 0.005564694 -0.1154044 0.002260093 -0.0184612 -0.0003411447 -0.08288953 0.000243276 -0.0009367387 0.04086572 -0.01843709 0.006153353 -0.0003826251 -0.01905265 -0.005310834 -0.04428289 0.01195251 -0.001127968 0.001881042 -0.005238396 0.00647385 -0.04135913 -0.002217266 -0.01272366 -0.003478762 0.164497 -0.004505727 -0.009635604 -0.004896042 -0.05307903 -0.03311689 0.01449529 -0.01949629 -0.00165128 -0.001485346 -0.01278611 -0.007260597 -0.007595784 0.005029383 -0.007098786 0.03539629 0.005631365 -0.1154938 0.002577594 -0.01810211 -0.0004048998 -0.08285055 0.0001697317 -0.0007168857 0.04151595 -0.01801486 0.006576695 -0.0002245808 -0.01892602 -0.005159786 -0.04361435 0.01195945 -0.001673498 0.001787719 -0.005070203 0.006531581 -0.03888861 -0.002849321 -0.01244744 -0.003908736 0.1631607 -0.004117205 -0.009723094 -0.0056476 -0.0524723 -0.03437746 0.01465247 -0.01902189 -0.00146325 -0.0008974192 -0.01232282 -0.006924234 -0.007315638 0.005157723 -0.007015275 0.03565134 0.005670196 -0.1155468 0.003012538 -0.01777808 -0.0004769409 -0.08277134 0.0001230684 -0.0005522743 0.04193792 -0.01755303 0.007259301 -3.522005e-05 -0.0187116 -0.005016903 -0.04305351 0.01193398 -0.002241285 0.001586822 -0.004860498 0.00660482 -0.03641698 -0.003269603 -0.01220462 -0.004490022 0.1618032 -0.003830506 -0.009782838 -0.006330878 -0.05197816 -0.03563244 0.01478943 -0.01853103 -0.001319728 -0.0002732171 -0.01193108 -0.006659004 -0.00698532 0.005140416 -0.006994296 0.03592204 0.005670242 -0.1154522 0.003347279 -0.01740978 -0.0005718388 -0.0825667 7.881281e-05 -0.0004488192 0.04211396 -0.01703595 0.008057674 0.0001441828 -0.01858264 -0.004880141 -0.04274669 0.01180028 -0.002806448 0.001278622 -0.004657495 0.006691073 -0.03394759 -0.003468217 -0.01199177 -0.005115426 0.1604924 -0.003669472 -0.009843647 -0.006940522 -0.05173001 -0.03688861 0.01488398 -0.01814521 -0.001218275 0.0001641131 -0.01162691 -0.006462248 -0.006651704 0.004797234 -0.006898405 0.03621751 0.005626079 -0.1152182 0.003640194 -0.01705413 -0.000664394 -0.0823579 6.901927e-06 -0.0004059226 0.04206953 -0.01645296 0.008814023 0.0002999559 -0.01834424 -0.004756013 -0.04234832 0.01164725 -0.003340446 0.0008663391 -0.004547111 0.006745275 -0.03149401 -0.003417819 -0.01181398 -0.005620649 0.159137 -0.003646745 -0.009907869 -0.007468515 -0.05171868 -0.03815793 0.01496073 -0.01787383 -0.001125246 0.0006185164 -0.01141508 -0.006264157 -0.006311595 0.004402386 -0.006771885 0.0365189 0.005566718 -0.114972 0.003906111 -0.0168156 -0.0007003226 -0.08208525 -8.723674e-05 -0.0003924178 0.04181722 -0.01583949 0.009348914 0.0004618821 -0.01807675 -0.004651668 -0.04198638 0.0115878 -0.003840806 0.0005371185 -0.004428644 0.006852256 ]
<!EndOfComponent> 
<Rescale> 440 440 
<LearnRateCoef> 0  [ 0.3176073 0.509012 0.4850254 0.7327718 0.561263 0.6802238 0.7971878 0.6772397 0.5430431 0.6681515 0.7923836 0.6590382 0.8615111 0.6770455 0.766153 0.855666 0.8889032 0.7539431 0.6353128 0.7257032 0.8598276 0.6245123 0.9070924 0.6719667 0.9650761 0.5689617 0.9412994 0.9111127 0.8977093 0.8741859 0.8284334 0.9556887 0.7719802 0.9685543 0.6166541 0.9119582 0.9311828 0.9058207 0.9291729 0.9467688 0.3180657 0.508989 0.4851062 0.7327584 0.5614931 0.6801664 0.7969431 0.6772842 0.5430849 0.6679183 0.7922847 0.6591166 0.8615089 0.6771228 0.7661494 0.8554251 0.8888109 0.7536455 0.6352361 0.7255474 0.8597029 0.6243916 0.9070714 0.6719953 0.9649023 0.5689537 0.9409902 0.9108667 0.8976444 0.8734087 0.8284675 0.9554597 0.7718632 0.9685129 0.6164426 0.9115624 0.9307934 0.905318 0.9284524 0.946637 0.3184813 0.5089495 0.4851826 0.7327631 0.5617067 0.6801475 0.7967315 0.6773505 0.5431302 0.6677316 0.7922277 0.6591926 0.8615315 0.6771951 0.7661879 0.8552582 0.8887162 0.7533667 0.6351681 0.7254201 0.8596222 0.6243141 0.9070728 0.6720311 0.9647708 0.5689607 0.940755 0.9106326 0.8976765 0.872688 0.8286261 0.9552566 0.7717337 0.9684976 0.6162326 0.911176 0.9304615 0.9048541 0.9277351 0.9465196 0.3188622 0.508881 0.4852553 0.7327714 0.5619107 0.6801528 0.7965577 0.6774263 0.543283 0.6675643 0.7921557 0.6593167 0.8616332 0.677246 0.7662262 0.8550436 0.88861 0.7530992 0.6351113 0.7252911 0.8595519 0.6242877 0.9071869 0.6720901 0.9646503 0.5690195 0.9404696 0.9104458 0.8976882 0.8721509 0.8286821 0.9550548 0.7716353 0.9684812 0.6160424 0.9108954 0.9301689 0.9044465 0.9271213 0.9464026 0.3192169 0.5087782 0.4853205 0.7327963 0.5620935 0.6801686 0.7964202 0.677507 0.5434659 0.6673883 0.7920468 0.6594812 0.8618358 0.6772863 0.7662377 0.8548005 0.888602 0.752856 0.6350581 0.7251433 0.8594683 0.6244283 0.9074919 0.6721926 0.9645238 0.569079 0.9401476 0.9105983 0.8975516 0.8720072 0.8287442 0.9550344 0.7715482 0.9684419 0.615873 0.9106228 0.9298682 0.9040894 0.9265707 0.9463578 0.3195513 0.5086337 0.4853755 0.7329095 0.5622451 0.6801772 0.7963138 0.6775815 0.5436589 0.6671739 0.791983 0.6596547 0.86208 0.6773182 0.7661809 0.85467 0.888759 0.7526382 0.6350269 0.72496 0.8593354 0.6246721 0.9079252 0.6723476 0.9643986 0.569226 0.9399265 0.9111548 0.8970716 0.8719931 0.8293332 0.9551578 0.7714806 0.9683672 0.615737 0.9104971 0.9295287 0.9037678 0.9262251 0.9464157 0.3198869 0.5084894 0.4854304 0.7330229 0.5623971 0.6801859 0.7962074 0.6776564 0.5438521 0.6669601 0.7919192 0.6598283 0.8623245 0.6773503 0.7661242 0.8545396 0.8889161 0.7524205 0.6349958 0.7247767 0.8592026 0.6249162 0.9083592 0.6725027 0.9642735 0.5693732 0.9397056 0.9117126 0.8965927 0.8719791 0.8299236 0.9552811 0.7714129 0.9682925 0.6156012 0.9103713 0.9291899 0.9034464 0.9258801 0.9464737 0.320226 0.5083621 0.4854742 0.7331912 0.5625677 0.6801361 0.7961969 0.6776993 0.5440488 0.6666684 0.7919452 0.6600145 0.8626314 0.6773925 0.7659445 0.8545641 0.8892245 0.7522842 0.6350319 0.7245317 0.8589968 0.6252464 0.9088686 0.6726647 0.9642811 0.569551 0.9397668 0.9123952 0.8958181 0.8723447 0.8305386 0.9555513 0.7714142 0.9681606 0.61561 0.9103013 0.9287937 0.9033796 0.9256342 0.9466109 0.3205672 0.508258 0.4855037 0.7333477 0.5627986 0.6800375 0.7962261 0.6777139 0.5442615 0.6663262 0.7919774 0.6602263 0.8629455 0.6774749 0.7656764 0.854573 0.8895862 0.7522533 0.6350905 0.724246 0.8587425 0.625648 0.909427 0.6728379 0.9642946 0.5697714 0.9398974 0.9132236 0.8949037 0.8730676 0.8310002 0.955935 0.7714424 0.9679901 0.6156904 0.9103402 0.9283787 0.9034736 0.9256474 0.94675 0.320911 0.5081855 0.4855213 0.7334919 0.5630568 0.6799002 0.7962464 0.6777058 0.5444533 0.6659523 0.7919736 0.6604371 0.8632884 0.6775717 0.7653461 0.854542 0.8899086 0.7524459 0.6351585 0.7239329 0.8584641 0.6261138 0.9099987 0.6730249 0.9642625 0.5700248 0.939965 0.9141212 0.8939247 0.8738818 0.8314118 0.9563507 0.7715636 0.9677952 0.6158316 0.9106628 0.9279682 0.9036009 0.9260242 0.9468912 0.3212578 0.5081653 0.4855277 0.7336385 0.5633537 0.6797349 0.7962706 0.6776809 0.5446344 0.6655719 0.7919816 0.6606379 0.8636409 0.6776782 0.7649956 0.8545784 0.8902587 0.7526861 0.6352366 0.7236153 0.8581763 0.626581 0.9105654 0.6732093 0.9642388 0.570312 0.9400399 0.9150016 0.8929048 0.8746748 0.8319437 0.9567913 0.7716794 0.967606 0.6159802 0.9110287 0.92757 0.9037501 0.9264515 0.9470334 ]
<!EndOfComponent> 
</Nnet> 
